{"learner":{"attributes":{"scikit_learn":"{\"_estimator_type\": \"classifier\"}"},"feature_names":[],"feature_types":[],"gradient_booster":{"model":{"gbtree_model_param":{"num_parallel_tree":"1","num_trees":"5000"},"iteration_indptr":[0,5,10,15,20,25,30,35,40,45,50,55,60,65,70,75,80,85,90,95,100,105,110,115,120,125,130,135,140,145,150,155,160,165,170,175,180,185,190,195,200,205,210,215,220,225,230,235,240,245,250,255,260,265,270,275,280,285,290,295,300,305,310,315,320,325,330,335,340,345,350,355,360,365,370,375,380,385,390,395,400,405,410,415,420,425,430,435,440,445,450,455,460,465,470,475,480,485,490,495,500,505,510,515,520,525,530,535,540,545,550,555,560,565,570,575,580,585,590,595,600,605,610,615,620,625,630,635,640,645,650,655,660,665,670,675,680,685,690,695,700,705,710,715,720,725,730,735,740,745,750,755,760,765,770,775,780,785,790,795,800,805,810,815,820,825,830,835,840,845,850,855,860,865,870,875,880,885,890,895,900,905,910,915,920,925,930,935,940,945,950,955,960,965,970,975,980,985,990,995,1000,1005,1010,1015,1020,1025,1030,1035,1040,1045,1050,1055,1060,1065,1070,1075,1080,1085,1090,1095,1100,1105,1110,1115,1120,1125,1130,1135,1140,1145,1150,1155,1160,1165,1170,1175,1180,1185,1190,1195,1200,1205,1210,1215,1220,1225,1230,1235,1240,1245,1250,1255,1260,1265,1270,1275,1280,1285,1290,1295,1300,1305,1310,1315,1320,1325,1330,1335,1340,1345,1350,1355,1360,1365,1370,1375,1380,1385,1390,1395,1400,1405,1410,1415,1420,1425,1430,1435,1440,1445,1450,1455,1460,1465,1470,1475,1480,1485,1490,1495,1500,1505,1510,1515,1520,1525,1530,1535,1540,1545,1550,1555,1560,1565,1570,1575,1580,1585,1590,1595,1600,1605,1610,1615,1620,1625,1630,1635,1640,1645,1650,1655,1660,1665,1670,1675,1680,1685,1690,1695,1700,1705,1710,1715,1720,1725,1730,1735,1740,1745,1750,1755,1760,1765,1770,1775,1780,1785,1790,1795,1800,1805,1810,1815,1820,1825,1830,1835,1840,1845,1850,1855,1860,1865,1870,1875,1880,1885,1890,1895,1900,1905,1910,1915,1920,1925,1930,1935,1940,1945,1950,1955,1960,1965,1970,1975,1980,1985,1990,1995,2000,2005,2010,2015,2020,2025,2030,2035,2040,2045,2050,2055,2060,2065,2070,2075,2080,2085,2090,2095,2100,2105,2110,2115,2120,2125,2130,2135,2140,2145,2150,2155,2160,2165,2170,2175,2180,2185,2190,2195,2200,2205,2210,2215,2220,2225,2230,2235,2240,2245,2250,2255,2260,2265,2270,2275,2280,2285,2290,2295,2300,2305,2310,2315,2320,2325,2330,2335,2340,2345,2350,2355,2360,2365,2370,2375,2380,2385,2390,2395,2400,2405,2410,2415,2420,2425,2430,2435,2440,2445,2450,2455,2460,2465,2470,2475,2480,2485,2490,2495,2500,2505,2510,2515,2520,2525,2530,2535,2540,2545,2550,2555,2560,2565,2570,2575,2580,2585,2590,2595,2600,2605,2610,2615,2620,2625,2630,2635,2640,2645,2650,2655,2660,2665,2670,2675,2680,2685,2690,2695,2700,2705,2710,2715,2720,2725,2730,2735,2740,2745,2750,2755,2760,2765,2770,2775,2780,2785,2790,2795,2800,2805,2810,2815,2820,2825,2830,2835,2840,2845,2850,2855,2860,2865,2870,2875,2880,2885,2890,2895,2900,2905,2910,2915,2920,2925,2930,2935,2940,2945,2950,2955,2960,2965,2970,2975,2980,2985,2990,2995,3000,3005,3010,3015,3020,3025,3030,3035,3040,3045,3050,3055,3060,3065,3070,3075,3080,3085,3090,3095,3100,3105,3110,3115,3120,3125,3130,3135,3140,3145,3150,3155,3160,3165,3170,3175,3180,3185,3190,3195,3200,3205,3210,3215,3220,3225,3230,3235,3240,3245,3250,3255,3260,3265,3270,3275,3280,3285,3290,3295,3300,3305,3310,3315,3320,3325,3330,3335,3340,3345,3350,3355,3360,3365,3370,3375,3380,3385,3390,3395,3400,3405,3410,3415,3420,3425,3430,3435,3440,3445,3450,3455,3460,3465,3470,3475,3480,3485,3490,3495,3500,3505,3510,3515,3520,3525,3530,3535,3540,3545,3550,3555,3560,3565,3570,3575,3580,3585,3590,3595,3600,3605,3610,3615,3620,3625,3630,3635,3640,3645,3650,3655,3660,3665,3670,3675,3680,3685,3690,3695,3700,3705,3710,3715,3720,3725,3730,3735,3740,3745,3750,3755,3760,3765,3770,3775,3780,3785,3790,3795,3800,3805,3810,3815,3820,3825,3830,3835,3840,3845,3850,3855,3860,3865,3870,3875,3880,3885,3890,3895,3900,3905,3910,3915,3920,3925,3930,3935,3940,3945,3950,3955,3960,3965,3970,3975,3980,3985,3990,3995,4000,4005,4010,4015,4020,4025,4030,4035,4040,4045,4050,4055,4060,4065,4070,4075,4080,4085,4090,4095,4100,4105,4110,4115,4120,4125,4130,4135,4140,4145,4150,4155,4160,4165,4170,4175,4180,4185,4190,4195,4200,4205,4210,4215,4220,4225,4230,4235,4240,4245,4250,4255,4260,4265,4270,4275,4280,4285,4290,4295,4300,4305,4310,4315,4320,4325,4330,4335,4340,4345,4350,4355,4360,4365,4370,4375,4380,4385,4390,4395,4400,4405,4410,4415,4420,4425,4430,4435,4440,4445,4450,4455,4460,4465,4470,4475,4480,4485,4490,4495,4500,4505,4510,4515,4520,4525,4530,4535,4540,4545,4550,4555,4560,4565,4570,4575,4580,4585,4590,4595,4600,4605,4610,4615,4620,4625,4630,4635,4640,4645,4650,4655,4660,4665,4670,4675,4680,4685,4690,4695,4700,4705,4710,4715,4720,4725,4730,4735,4740,4745,4750,4755,4760,4765,4770,4775,4780,4785,4790,4795,4800,4805,4810,4815,4820,4825,4830,4835,4840,4845,4850,4855,4860,4865,4870,4875,4880,4885,4890,4895,4900,4905,4910,4915,4920,4925,4930,4935,4940,4945,4950,4955,4960,4965,4970,4975,4980,4985,4990,4995,5000],"tree_info":[0,1,2,3,4,0,1,2,3,4,0,1,2,3,4,0,1,2,3,4,0,1,2,3,4,0,1,2,3,4,0,1,2,3,4,0,1,2,3,4,0,1,2,3,4,0,1,2,3,4,0,1,2,3,4,0,1,2,3,4,0,1,2,3,4,0,1,2,3,4,0,1,2,3,4,0,1,2,3,4,0,1,2,3,4,0,1,2,3,4,0,1,2,3,4,0,1,2,3,4,0,1,2,3,4,0,1,2,3,4,0,1,2,3,4,0,1,2,3,4,0,1,2,3,4,0,1,2,3,4,0,1,2,3,4,0,1,2,3,4,0,1,2,3,4,0,1,2,3,4,0,1,2,3,4,0,1,2,3,4,0,1,2,3,4,0,1,2,3,4,0,1,2,3,4,0,1,2,3,4,0,1,2,3,4,0,1,2,3,4,0,1,2,3,4,0,1,2,3,4,0,1,2,3,4,0,1,2,3,4,0,1,2,3,4,0,1,2,3,4,0,1,2,3,4,0,1,2,3,4,0,1,2,3,4,0,1,2,3,4,0,1,2,3,4,0,1,2,3,4,0,1,2,3,4,0,1,2,3,4,0,1,2,3,4,0,1,2,3,4,0,1,2,3,4,0,1,2,3,4,0,1,2,3,4,0,1,2,3,4,0,1,2,3,4,0,1,2,3,4,0,1,2,3,4,0,1,2,3,4,0,1,2,3,4,0,1,2,3,4,0,1,2,3,4,0,1,2,3,4,0,1,2,3,4,0,1,2,3,4,0,1,2,3,4,0,1,2,3,4,0,1,2,3,4,0,1,2,3,4,0,1,2,3,4,0,1,2,3,4,0,1,2,3,4,0,1,2,3,4,0,1,2,3,4,0,1,2,3,4,0,1,2,3,4,0,1,2,3,4,0,1,2,3,4,0,1,2,3,4,0,1,2,3,4,0,1,2,3,4,0,1,2,3,4,0,1,2,3,4,0,1,2,3,4,0,1,2,3,4,0,1,2,3,4,0,1,2,3,4,0,1,2,3,4,0,1,2,3,4,0,1,2,3,4,0,1,2,3,4,0,1,2,3,4,0,1,2,3,4,0,1,2,3,4,0,1,2,3,4,0,1,2,3,4,0,1,2,3,4,0,1,2,3,4,0,1,2,3,4,0,1,2,3,4,0,1,2,3,4,0,1,2,3,4,0,1,2,3,4,0,1,2,3,4,0,1,2,3,4,0,1,2,3,4,0,1,2,3,4,0,1,2,3,4,0,1,2,3,4,0,1,2,3,4,0,1,2,3,4,0,1,2,3,4,0,1,2,3,4,0,1,2,3,4,0,1,2,3,4,0,1,2,3,4,0,1,2,3,4,0,1,2,3,4,0,1,2,3,4,0,1,2,3,4,0,1,2,3,4,0,1,2,3,4,0,1,2,3,4,0,1,2,3,4,0,1,2,3,4,0,1,2,3,4,0,1,2,3,4,0,1,2,3,4,0,1,2,3,4,0,1,2,3,4,0,1,2,3,4,0,1,2,3,4,0,1,2,3,4,0,1,2,3,4,0,1,2,3,4,0,1,2,3,4,0,1,2,3,4,0,1,2,3,4,0,1,2,3,4,0,1,2,3,4,0,1,2,3,4,0,1,2,3,4,0,1,2,3,4,0,1,2,3,4,0,1,2,3,4,0,1,2,3,4,0,1,2,3,4,0,1,2,3,4,0,1,2,3,4,0,1,2,3,4,0,1,2,3,4,0,1,2,3,4,0,1,2,3,4,0,1,2,3,4,0,1,2,3,4,0,1,2,3,4,0,1,2,3,4,0,1,2,3,4,0,1,2,3,4,0,1,2,3,4,0,1,2,3,4,0,1,2,3,4,0,1,2,3,4,0,1,2,3,4,0,1,2,3,4,0,1,2,3,4,0,1,2,3,4,0,1,2,3,4,0,1,2,3,4,0,1,2,3,4,0,1,2,3,4,0,1,2,3,4,0,1,2,3,4,0,1,2,3,4,0,1,2,3,4,0,1,2,3,4,0,1,2,3,4,0,1,2,3,4,0,1,2,3,4,0,1,2,3,4,0,1,2,3,4,0,1,2,3,4,0,1,2,3,4,0,1,2,3,4,0,1,2,3,4,0,1,2,3,4,0,1,2,3,4,0,1,2,3,4,0,1,2,3,4,0,1,2,3,4,0,1,2,3,4,0,1,2,3,4,0,1,2,3,4,0,1,2,3,4,0,1,2,3,4,0,1,2,3,4,0,1,2,3,4,0,1,2,3,4,0,1,2,3,4,0,1,2,3,4,0,1,2,3,4,0,1,2,3,4,0,1,2,3,4,0,1,2,3,4,0,1,2,3,4,0,1,2,3,4,0,1,2,3,4,0,1,2,3,4,0,1,2,3,4,0,1,2,3,4,0,1,2,3,4,0,1,2,3,4,0,1,2,3,4,0,1,2,3,4,0,1,2,3,4,0,1,2,3,4,0,1,2,3,4,0,1,2,3,4,0,1,2,3,4,0,1,2,3,4,0,1,2,3,4,0,1,2,3,4,0,1,2,3,4,0,1,2,3,4,0,1,2,3,4,0,1,2,3,4,0,1,2,3,4,0,1,2,3,4,0,1,2,3,4,0,1,2,3,4,0,1,2,3,4,0,1,2,3,4,0,1,2,3,4,0,1,2,3,4,0,1,2,3,4,0,1,2,3,4,0,1,2,3,4,0,1,2,3,4,0,1,2,3,4,0,1,2,3,4,0,1,2,3,4,0,1,2,3,4,0,1,2,3,4,0,1,2,3,4,0,1,2,3,4,0,1,2,3,4,0,1,2,3,4,0,1,2,3,4,0,1,2,3,4,0,1,2,3,4,0,1,2,3,4,0,1,2,3,4,0,1,2,3,4,0,1,2,3,4,0,1,2,3,4,0,1,2,3,4,0,1,2,3,4,0,1,2,3,4,0,1,2,3,4,0,1,2,3,4,0,1,2,3,4,0,1,2,3,4,0,1,2,3,4,0,1,2,3,4,0,1,2,3,4,0,1,2,3,4,0,1,2,3,4,0,1,2,3,4,0,1,2,3,4,0,1,2,3,4,0,1,2,3,4,0,1,2,3,4,0,1,2,3,4,0,1,2,3,4,0,1,2,3,4,0,1,2,3,4,0,1,2,3,4,0,1,2,3,4,0,1,2,3,4,0,1,2,3,4,0,1,2,3,4,0,1,2,3,4,0,1,2,3,4,0,1,2,3,4,0,1,2,3,4,0,1,2,3,4,0,1,2,3,4,0,1,2,3,4,0,1,2,3,4,0,1,2,3,4,0,1,2,3,4,0,1,2,3,4,0,1,2,3,4,0,1,2,3,4,0,1,2,3,4,0,1,2,3,4,0,1,2,3,4,0,1,2,3,4,0,1,2,3,4,0,1,2,3,4,0,1,2,3,4,0,1,2,3,4,0,1,2,3,4,0,1,2,3,4,0,1,2,3,4,0,1,2,3,4,0,1,2,3,4,0,1,2,3,4,0,1,2,3,4,0,1,2,3,4,0,1,2,3,4,0,1,2,3,4,0,1,2,3,4,0,1,2,3,4,0,1,2,3,4,0,1,2,3,4,0,1,2,3,4,0,1,2,3,4,0,1,2,3,4,0,1,2,3,4,0,1,2,3,4,0,1,2,3,4,0,1,2,3,4,0,1,2,3,4,0,1,2,3,4,0,1,2,3,4,0,1,2,3,4,0,1,2,3,4,0,1,2,3,4,0,1,2,3,4,0,1,2,3,4,0,1,2,3,4,0,1,2,3,4,0,1,2,3,4,0,1,2,3,4,0,1,2,3,4,0,1,2,3,4,0,1,2,3,4,0,1,2,3,4,0,1,2,3,4,0,1,2,3,4,0,1,2,3,4,0,1,2,3,4,0,1,2,3,4,0,1,2,3,4,0,1,2,3,4,0,1,2,3,4,0,1,2,3,4,0,1,2,3,4,0,1,2,3,4,0,1,2,3,4,0,1,2,3,4,0,1,2,3,4,0,1,2,3,4,0,1,2,3,4,0,1,2,3,4,0,1,2,3,4,0,1,2,3,4,0,1,2,3,4,0,1,2,3,4,0,1,2,3,4,0,1,2,3,4,0,1,2,3,4,0,1,2,3,4,0,1,2,3,4,0,1,2,3,4,0,1,2,3,4,0,1,2,3,4,0,1,2,3,4,0,1,2,3,4,0,1,2,3,4,0,1,2,3,4,0,1,2,3,4,0,1,2,3,4,0,1,2,3,4,0,1,2,3,4,0,1,2,3,4,0,1,2,3,4,0,1,2,3,4,0,1,2,3,4,0,1,2,3,4,0,1,2,3,4,0,1,2,3,4,0,1,2,3,4,0,1,2,3,4,0,1,2,3,4,0,1,2,3,4,0,1,2,3,4,0,1,2,3,4,0,1,2,3,4,0,1,2,3,4,0,1,2,3,4,0,1,2,3,4,0,1,2,3,4,0,1,2,3,4,0,1,2,3,4,0,1,2,3,4,0,1,2,3,4,0,1,2,3,4,0,1,2,3,4,0,1,2,3,4,0,1,2,3,4,0,1,2,3,4,0,1,2,3,4,0,1,2,3,4,0,1,2,3,4,0,1,2,3,4,0,1,2,3,4,0,1,2,3,4,0,1,2,3,4,0,1,2,3,4,0,1,2,3,4,0,1,2,3,4,0,1,2,3,4,0,1,2,3,4,0,1,2,3,4,0,1,2,3,4,0,1,2,3,4,0,1,2,3,4,0,1,2,3,4,0,1,2,3,4,0,1,2,3,4,0,1,2,3,4,0,1,2,3,4,0,1,2,3,4,0,1,2,3,4,0,1,2,3,4,0,1,2,3,4,0,1,2,3,4,0,1,2,3,4,0,1,2,3,4,0,1,2,3,4,0,1,2,3,4,0,1,2,3,4,0,1,2,3,4,0,1,2,3,4,0,1,2,3,4,0,1,2,3,4,0,1,2,3,4,0,1,2,3,4,0,1,2,3,4,0,1,2,3,4,0,1,2,3,4,0,1,2,3,4,0,1,2,3,4,0,1,2,3,4,0,1,2,3,4,0,1,2,3,4,0,1,2,3,4,0,1,2,3,4,0,1,2,3,4,0,1,2,3,4,0,1,2,3,4,0,1,2,3,4,0,1,2,3,4,0,1,2,3,4,0,1,2,3,4,0,1,2,3,4,0,1,2,3,4,0,1,2,3,4,0,1,2,3,4,0,1,2,3,4,0,1,2,3,4,0,1,2,3,4,0,1,2,3,4,0,1,2,3,4,0,1,2,3,4,0,1,2,3,4,0,1,2,3,4,0,1,2,3,4,0,1,2,3,4,0,1,2,3,4,0,1,2,3,4,0,1,2,3,4,0,1,2,3,4,0,1,2,3,4,0,1,2,3,4,0,1,2,3,4,0,1,2,3,4,0,1,2,3,4,0,1,2,3,4,0,1,2,3,4,0,1,2,3,4,0,1,2,3,4,0,1,2,3,4,0,1,2,3,4,0,1,2,3,4,0,1,2,3,4,0,1,2,3,4,0,1,2,3,4,0,1,2,3,4,0,1,2,3,4,0,1,2,3,4,0,1,2,3,4,0,1,2,3,4,0,1,2,3,4,0,1,2,3,4,0,1,2,3,4,0,1,2,3,4,0,1,2,3,4,0,1,2,3,4,0,1,2,3,4,0,1,2,3,4,0,1,2,3,4,0,1,2,3,4,0,1,2,3,4,0,1,2,3,4,0,1,2,3,4,0,1,2,3,4,0,1,2,3,4,0,1,2,3,4,0,1,2,3,4,0,1,2,3,4,0,1,2,3,4,0,1,2,3,4,0,1,2,3,4,0,1,2,3,4,0,1,2,3,4,0,1,2,3,4,0,1,2,3,4,0,1,2,3,4,0,1,2,3,4,0,1,2,3,4,0,1,2,3,4,0,1,2,3,4,0,1,2,3,4,0,1,2,3,4,0,1,2,3,4,0,1,2,3,4,0,1,2,3,4,0,1,2,3,4,0,1,2,3,4,0,1,2,3,4,0,1,2,3,4,0,1,2,3,4,0,1,2,3,4,0,1,2,3,4,0,1,2,3,4,0,1,2,3,4,0,1,2,3,4,0,1,2,3,4,0,1,2,3,4,0,1,2,3,4,0,1,2,3,4,0,1,2,3,4,0,1,2,3,4,0,1,2,3,4,0,1,2,3,4,0,1,2,3,4,0,1,2,3,4,0,1,2,3,4,0,1,2,3,4,0,1,2,3,4,0,1,2,3,4,0,1,2,3,4,0,1,2,3,4,0,1,2,3,4,0,1,2,3,4,0,1,2,3,4,0,1,2,3,4,0,1,2,3,4,0,1,2,3,4,0,1,2,3,4,0,1,2,3,4,0,1,2,3,4,0,1,2,3,4,0,1,2,3,4,0,1,2,3,4,0,1,2,3,4,0,1,2,3,4,0,1,2,3,4,0,1,2,3,4,0,1,2,3,4,0,1,2,3,4,0,1,2,3,4,0,1,2,3,4,0,1,2,3,4,0,1,2,3,4,0,1,2,3,4,0,1,2,3,4,0,1,2,3,4,0,1,2,3,4,0,1,2,3,4,0,1,2,3,4,0,1,2,3,4,0,1,2,3,4,0,1,2,3,4,0,1,2,3,4,0,1,2,3,4,0,1,2,3,4,0,1,2,3,4,0,1,2,3,4,0,1,2,3,4,0,1,2,3,4,0,1,2,3,4,0,1,2,3,4,0,1,2,3,4,0,1,2,3,4,0,1,2,3,4,0,1,2,3,4,0,1,2,3,4,0,1,2,3,4,0,1,2,3,4,0,1,2,3,4,0,1,2,3,4,0,1,2,3,4,0,1,2,3,4,0,1,2,3,4,0,1,2,3,4,0,1,2,3,4,0,1,2,3,4,0,1,2,3,4,0,1,2,3,4,0,1,2,3,4,0,1,2,3,4,0,1,2,3,4,0,1,2,3,4,0,1,2,3,4,0,1,2,3,4,0,1,2,3,4,0,1,2,3,4,0,1,2,3,4,0,1,2,3,4,0,1,2,3,4,0,1,2,3,4,0,1,2,3,4,0,1,2,3,4,0,1,2,3,4,0,1,2,3,4,0,1,2,3,4,0,1,2,3,4,0,1,2,3,4,0,1,2,3,4,0,1,2,3,4,0,1,2,3,4,0,1,2,3,4,0,1,2,3,4,0,1,2,3,4,0,1,2,3,4,0,1,2,3,4,0,1,2,3,4,0,1,2,3,4,0,1,2,3,4,0,1,2,3,4,0,1,2,3,4,0,1,2,3,4,0,1,2,3,4,0,1,2,3,4,0,1,2,3,4,0,1,2,3,4,0,1,2,3,4,0,1,2,3,4,0,1,2,3,4,0,1,2,3,4,0,1,2,3,4,0,1,2,3,4,0,1,2,3,4,0,1,2,3,4,0,1,2,3,4,0,1,2,3,4,0,1,2,3,4,0,1,2,3,4,0,1,2,3,4,0,1,2,3,4,0,1,2,3,4,0,1,2,3,4,0,1,2,3,4,0,1,2,3,4,0,1,2,3,4,0,1,2,3,4,0,1,2,3,4,0,1,2,3,4,0,1,2,3,4,0,1,2,3,4,0,1,2,3,4,0,1,2,3,4,0,1,2,3,4,0,1,2,3,4,0,1,2,3,4,0,1,2,3,4,0,1,2,3,4,0,1,2,3,4,0,1,2,3,4,0,1,2,3,4,0,1,2,3,4,0,1,2,3,4,0,1,2,3,4,0,1,2,3,4,0,1,2,3,4,0,1,2,3,4,0,1,2,3,4,0,1,2,3,4,0,1,2,3,4,0,1,2,3,4,0,1,2,3,4,0,1,2,3,4,0,1,2,3,4,0,1,2,3,4,0,1,2,3,4,0,1,2,3,4,0,1,2,3,4,0,1,2,3,4,0,1,2,3,4,0,1,2,3,4,0,1,2,3,4,0,1,2,3,4,0,1,2,3,4,0,1,2,3,4,0,1,2,3,4,0,1,2,3,4,0,1,2,3,4,0,1,2,3,4,0,1,2,3,4,0,1,2,3,4,0,1,2,3,4,0,1,2,3,4,0,1,2,3,4,0,1,2,3,4,0,1,2,3,4,0,1,2,3,4,0,1,2,3,4,0,1,2,3,4,0,1,2,3,4,0,1,2,3,4,0,1,2,3,4,0,1,2,3,4,0,1,2,3,4,0,1,2,3,4,0,1,2,3,4,0,1,2,3,4,0,1,2,3,4,0,1,2,3,4,0,1,2,3,4,0,1,2,3,4,0,1,2,3,4,0,1,2,3,4,0,1,2,3,4,0,1,2,3,4,0,1,2,3,4,0,1,2,3,4,0,1,2,3,4,0,1,2,3,4,0,1,2,3,4,0,1,2,3,4,0,1,2,3,4,0,1,2,3,4,0,1,2,3,4,0,1,2,3,4,0,1,2,3,4,0,1,2,3,4,0,1,2,3,4,0,1,2,3,4,0,1,2,3,4,0,1,2,3,4,0,1,2,3,4,0,1,2,3,4,0,1,2,3,4,0,1,2,3,4,0,1,2,3,4,0,1,2,3,4,0,1,2,3,4,0,1,2,3,4,0,1,2,3,4,0,1,2,3,4,0,1,2,3,4,0,1,2,3,4,0,1,2,3,4,0,1,2,3,4,0,1,2,3,4,0,1,2,3,4,0,1,2,3,4,0,1,2,3,4,0,1,2,3,4,0,1,2,3,4,0,1,2,3,4,0,1,2,3,4,0,1,2,3,4,0,1,2,3,4,0,1,2,3,4,0,1,2,3,4,0,1,2,3,4,0,1,2,3,4,0,1,2,3,4,0,1,2,3,4,0,1,2,3,4,0,1,2,3,4,0,1,2,3,4,0,1,2,3,4,0,1,2,3,4,0,1,2,3,4,0,1,2,3,4,0,1,2,3,4,0,1,2,3,4,0,1,2,3,4,0,1,2,3,4,0,1,2,3,4,0,1,2,3,4,0,1,2,3,4,0,1,2,3,4,0,1,2,3,4,0,1,2,3,4,0,1,2,3,4,0,1,2,3,4,0,1,2,3,4,0,1,2,3,4,0,1,2,3,4,0,1,2,3,4,0,1,2,3,4,0,1,2,3,4,0,1,2,3,4,0,1,2,3,4,0,1,2,3,4,0,1,2,3,4,0,1,2,3,4,0,1,2,3,4,0,1,2,3,4,0,1,2,3,4,0,1,2,3,4,0,1,2,3,4,0,1,2,3,4,0,1,2,3,4,0,1,2,3,4,0,1,2,3,4,0,1,2,3,4,0,1,2,3,4,0,1,2,3,4,0,1,2,3,4,0,1,2,3,4,0,1,2,3,4,0,1,2,3,4,0,1,2,3,4,0,1,2,3,4,0,1,2,3,4,0,1,2,3,4,0,1,2,3,4,0,1,2,3,4,0,1,2,3,4,0,1,2,3,4,0,1,2,3,4,0,1,2,3,4,0,1,2,3,4,0,1,2,3,4,0,1,2,3,4,0,1,2,3,4,0,1,2,3,4,0,1,2,3,4,0,1,2,3,4,0,1,2,3,4,0,1,2,3,4,0,1,2,3,4,0,1,2,3,4,0,1,2,3,4,0,1,2,3,4,0,1,2,3,4,0,1,2,3,4,0,1,2,3,4,0,1,2,3,4,0,1,2,3,4,0,1,2,3,4,0,1,2,3,4,0,1,2,3,4,0,1,2,3,4,0,1,2,3,4,0,1,2,3,4,0,1,2,3,4,0,1,2,3,4,0,1,2,3,4,0,1,2,3,4,0,1,2,3,4,0,1,2,3,4,0,1,2,3,4,0,1,2,3,4,0,1,2,3,4,0,1,2,3,4,0,1,2,3,4,0,1,2,3,4,0,1,2,3,4,0,1,2,3,4,0,1,2,3,4,0,1,2,3,4,0,1,2,3,4,0,1,2,3,4,0,1,2,3,4,0,1,2,3,4,0,1,2,3,4,0,1,2,3,4,0,1,2,3,4,0,1,2,3,4,0,1,2,3,4,0,1,2,3,4,0,1,2,3,4,0,1,2,3,4,0,1,2,3,4,0,1,2,3,4,0,1,2,3,4,0,1,2,3,4,0,1,2,3,4,0,1,2,3,4,0,1,2,3,4,0,1,2,3,4,0,1,2,3,4,0,1,2,3,4,0,1,2,3,4,0,1,2,3,4,0,1,2,3,4,0,1,2,3,4,0,1,2,3,4,0,1,2,3,4,0,1,2,3,4,0,1,2,3,4,0,1,2,3,4,0,1,2,3,4,0,1,2,3,4,0,1,2,3,4,0,1,2,3,4,0,1,2,3,4,0,1,2,3,4,0,1,2,3,4,0,1,2,3,4,0,1,2,3,4,0,1,2,3,4,0,1,2,3,4,0,1,2,3,4,0,1,2,3,4,0,1,2,3,4,0,1,2,3,4,0,1,2,3,4,0,1,2,3,4,0,1,2,3,4,0,1,2,3,4,0,1,2,3,4,0,1,2,3,4,0,1,2,3,4,0,1,2,3,4,0,1,2,3,4,0,1,2,3,4,0,1,2,3,4,0,1,2,3,4,0,1,2,3,4,0,1,2,3,4,0,1,2,3,4,0,1,2,3,4,0,1,2,3,4,0,1,2,3,4,0,1,2,3,4,0,1,2,3,4,0,1,2,3,4,0,1,2,3,4,0,1,2,3,4,0,1,2,3,4,0,1,2,3,4,0,1,2,3,4,0,1,2,3,4,0,1,2,3,4,0,1,2,3,4,0,1,2,3,4,0,1,2,3,4,0,1,2,3,4,0,1,2,3,4,0,1,2,3,4,0,1,2,3,4,0,1,2,3,4,0,1,2,3,4,0,1,2,3,4,0,1,2,3,4,0,1,2,3,4,0,1,2,3,4,0,1,2,3,4,0,1,2,3,4,0,1,2,3,4,0,1,2,3,4,0,1,2,3,4,0,1,2,3,4,0,1,2,3,4,0,1,2,3,4,0,1,2,3,4,0,1,2,3,4,0,1,2,3,4,0,1,2,3,4,0,1,2,3,4,0,1,2,3,4,0,1,2,3,4,0,1,2,3,4,0,1,2,3,4,0,1,2,3,4,0,1,2,3,4,0,1,2,3,4,0,1,2,3,4,0,1,2,3,4,0,1,2,3,4,0,1,2,3,4,0,1,2,3,4,0,1,2,3,4,0,1,2,3,4,0,1,2,3,4,0,1,2,3,4,0,1,2,3,4],"trees":[{"base_weights":[-0E0,-3.8415363E-1,7.44186E-1,-1.8725617E-1,7.384615E-1],"categories":[],"categories_nodes":[],"categories_segments":[],"categories_sizes":[],"default_left":[0,0,0,0,0],"id":0,"left_children":[1,3,-1,-1,-1],"loss_changes":[9.167275E2,5.705268E2,0E0,0E0,0E0],"parents":[2147483647,0,0,1,1],"right_children":[2,4,-1,-1,-1],"split_conditions":[2.5550045E1,1.4141537E1,7.44186E-1,-1.8725617E-1,7.384615E-1],"split_indices":[14,19,0,0,0],"split_type":[0,0,0,0,0],"sum_hessian":[9.6000006E2,8.3200006E2,1.2800002E2,7.6800006E2,6.400001E1],"tree_param":{"num_deleted":"0","num_feature":"40","num_nodes":"5","size_leaf_vector":"1"}},{"base_weights":[-0E0,8.950743E-1,-3.9232102E-1,2.3689866E0,-1.8620974E-1,-5.714382E-1,9.445843E-1,-1.460177E-1,2.4415083E0,-6.1692166E-1,8.350951E-1,7.315634E-1,-1.8277946E-1,-1.2328767E-1,7.447699E-1,-3.433476E-1,-1.8610422E-1,-1.692607E-1,6.7219913E-1,-1.6417912E-1,1.5789473E-1],"categories":[],"categories_nodes":[],"categories_segments":[],"categories_sizes":[],"default_left":[0,0,0,0,0,0,0,0,0,0,0,0,0,0,0,0,0,0,0,0,0],"id":1,"left_children":[1,3,5,7,-1,9,11,-1,13,15,17,-1,-1,-1,-1,19,-1,-1,-1,-1,-1],"loss_changes":[3.3781256E2,6.564243E2,1.6070203E2,3.2013245E1,0E0,3.828798E1,1.8580402E2,0E0,1.803949E1,3.2356262E-1,3.847621E1,0E0,0E0,0E0,0E0,1.9408264E0,0E0,0E0,0E0,0E0,0E0],"parents":[2147483647,0,0,1,1,2,2,3,3,5,5,6,6,8,8,9,9,10,10,15,15],"right_children":[2,4,6,8,-1,10,12,-1,14,16,18,-1,-1,-1,-1,20,-1,-1,-1,-1,-1],"split_conditions":[0E0,1.3859482E2,7.889774E0,-8.165165E2,-1.8620974E-1,1.8685265E2,1.4141537E1,-1.460177E-1,-8.6080554E2,0E0,8.966653E1,7.315634E-1,-1.8277946E-1,-1.2328767E-1,7.447699E-1,-2.9163028E2,-1.8610422E-1,-1.692607E-1,6.7219913E-1,-1.6417912E-1,1.5789473E-1],"split_indices":[9,8,12,8,0,13,19,0,9,13,1,0,0,0,0,0,0,0,0,0,0],"split_type":[0,0,0,0,0,0,0,0,0,0,0,0,0,0,0,0,0,0,0,0,0],"sum_hessian":[9.6000006E2,2.9216003E2,6.6784E2,1.4784001E2,1.4432E2,5.8944006E2,7.840001E1,3.5200002E0,1.4432E2,5.7152E2,1.7920002E1,3.9680004E1,3.872E1,1.9200001E0,1.4240001E2,8.320001E0,5.632E2,9.280001E0,8.64E0,7.0400004E0,1.2800001E0],"tree_param":{"num_deleted":"0","num_feature":"40","num_nodes":"21","size_leaf_vector":"1"}},{"base_weights":[-0E0,-2.3424251E-1,1.4183044E0,-4.5459557E-1,1.348359E0,2.2374144E-1,7.3561645E-1,-5.0361526E-1,6.915888E-1,-3.369673E-1,2.4271843E0,-1.8351741E-1,7.089715E-1,-5.487284E-1,6.851211E-1,5.840708E-1,-1.8241042E-1,1.5789473E-1,7.3760736E-1,6.046512E-1,-5.6687456E-1,2.1086262E-1,-1.7675298E-1],"categories":[],"categories_nodes":[],"categories_segments":[],"categories_sizes":[],"default_left":[0,0,0,0,0,0,0,0,0,0,0,0,0,0,0,0,0,0,0,0,0,0,0],"id":2,"left_children":[1,3,5,7,9,11,-1,13,-1,15,17,-1,-1,19,-1,-1,-1,-1,-1,-1,21,-1,-1],"loss_changes":[3.196026E2,2.885393E2,1.6783954E2,9.931044E1,1.8474423E2,1.164877E2,0E0,9.099077E1,0E0,2.6169964E1,2.4072266E0,0E0,0E0,3.385753E1,0E0,0E0,0E0,0E0,0E0,0E0,2.0206116E1,0E0,0E0],"parents":[2147483647,0,0,1,1,2,2,3,3,4,4,5,5,7,7,9,9,10,10,13,13,20,20],"right_children":[2,4,6,8,10,12,-1,14,-1,16,18,-1,-1,20,-1,-1,-1,-1,-1,-1,22,-1,-1],"split_conditions":[3.0153845E2,2.6997876E2,1.2700467E2,5.204077E2,2.377221E0,1.1242575E2,7.3561645E-1,6.006744E2,6.915888E-1,-8.165165E2,1.2565306E1,-1.8351741E-1,7.089715E-1,-8.7983795E2,6.851211E-1,5.840708E-1,-1.8241042E-1,1.5789473E-1,7.3760736E-1,6.046512E-1,-9.735516E2,2.1086262E-1,-1.7675298E-1],"split_indices":[0,1,8,7,9,9,0,6,0,8,11,0,0,8,0,0,0,0,0,0,5,0,0],"split_type":[0,0,0,0,0,0,0,0,0,0,0,0,0,0,0,0,0,0,0,0,0,0,0],"sum_hessian":[9.6000006E2,8.246401E2,1.3536002E2,7.2448004E2,1.0016E2,6.3360004E1,7.200001E1,7.126401E2,1.1840001E1,3.9360004E1,6.0800003E1,4.608E1,1.728E1,7.020801E2,1.056E1,3.5200002E0,3.5840004E1,1.2800001E0,5.9520004E1,4.1600003E0,6.9792004E2,1.152E1,6.864E2],"tree_param":{"num_deleted":"0","num_feature":"40","num_nodes":"23","size_leaf_vector":"1"}},{"base_weights":[-0E0,-1.521518E-1,2.3872309E0,-3.764954E-1,8.447488E-1,-1.05263166E-1,7.3669267E-1,-4.0524268E-1,1.9999999E0,2.1945596E0,-1.85176E-1,6.51289E-1,-4.490063E-1,6.528498E-1,1.5789473E-1,7.4051595E-1,-1.6589862E-1,6.915888E-1,-1.7687075E-1,-5.2101713E-1,3.713412E-2,-1.6529556E-1,4.0361446E-1,-1.8455742E-1,4.4313452E-1],"categories":[],"categories_nodes":[],"categories_segments":[],"categories_sizes":[],"default_left":[0,0,0,0,0,0,0,0,0,0,0,0,0,0,0,0,0,0,0,0,0,0,0,0,0],"id":3,"left_children":[1,3,5,7,9,-1,-1,11,13,15,-1,17,19,-1,-1,-1,-1,-1,-1,21,23,-1,-1,-1,-1],"loss_changes":[3.4941907E2,2.0257663E2,1.16586E1,5.1291855E1,3.2981165E2,0E0,0E0,3.4088448E1,1.1911697E0,6.663934E1,0E0,6.186352E1,2.4609924E1,0E0,0E0,0E0,0E0,0E0,0E0,3.496512E1,8.6914345E1,0E0,0E0,0E0,0E0],"parents":[2147483647,0,0,1,1,2,2,3,3,4,4,7,7,8,8,9,9,11,11,12,12,19,19,20,20],"right_children":[2,4,6,8,10,-1,-1,12,14,16,-1,18,20,-1,-1,-1,-1,-1,-1,22,24,-1,-1,-1,-1],"split_conditions":[4.981845E2,4.3383957E2,-9.430899E2,5.520546E2,5.1768503E0,-1.05263166E-1,7.3669267E-1,-8.5041736E2,-4.1316724E2,7.818785E1,-1.85176E-1,5.1768503E0,3.4473187E2,6.528498E-1,1.5789473E-1,7.4051595E-1,-1.6589862E-1,6.915888E-1,-1.7687075E-1,4.6719043E2,0E0,-1.6529556E-1,4.0361446E-1,-1.8455742E-1,4.4313452E-1],"split_indices":[3,2,0,1,8,0,0,1,0,1,0,8,7,0,0,0,0,0,0,3,10,0,0,0,0],"split_type":[0,0,0,0,0,0,0,0,0,0,0,0,0,0,0,0,0,0,0,0,0,0,0,0,0],"sum_hessian":[9.6000006E2,9.0336005E2,5.6640003E1,7.3792004E2,1.6544002E2,1.2800001E0,5.5360004E1,7.2992004E2,8.000001E0,8.576001E1,7.968001E1,2.8480001E1,7.0144006E2,6.7200003E0,1.2800001E0,7.808E1,7.6800003E0,1.1840001E1,1.6640001E1,6.1088007E2,9.0560005E1,6.0192004E2,8.960001E0,6.2720005E1,2.7840002E1],"tree_param":{"num_deleted":"0","num_feature":"40","num_nodes":"25","size_leaf_vector":"1"}},{"base_weights":[-0E0,-2.7512684E-1,2.3005059E0,-5.8505917E-1,2.2700043E0,-1.5976332E-1,7.42268E-1,6.8376064E-1,-1.872481E-1,7.414187E-1,-1.6101694E-1,-1.7391305E-1,6.792453E-1],"categories":[],"categories_nodes":[],"categories_segments":[],"categories_sizes":[],"default_left":[0,0,0,0,0,0,0,0,0,0,0,0,0],"id":4,"left_children":[1,3,5,7,9,-1,-1,11,-1,-1,-1,-1,-1],"loss_changes":[6.088796E2,6.791125E2,5.1891968E1,3.84675E1,5.4166138E1,0E0,0E0,4.8037132E1,0E0,0E0,0E0,0E0,0E0],"parents":[2147483647,0,0,1,1,2,2,3,3,4,4,7,7],"right_children":[2,4,6,8,10,-1,-1,12,-1,-1,-1,-1,-1],"split_conditions":[4.2478387E2,5.227319E2,-3.498733E2,-9.1560315E2,1.4100414E2,-1.5976332E-1,7.42268E-1,-6.929448E2,-1.872481E-1,7.414187E-1,-1.6101694E-1,-1.7391305E-1,6.792453E-1],"split_indices":[5,4,8,5,0,0,0,7,0,0,0,0,0],"split_type":[0,0,0,0,0,0,0,0,0,0,0,0,0],"sum_hessian":[9.6000006E2,8.5824005E2,1.0176001E2,7.657601E2,9.248E1,5.76E0,9.600001E1,2.2400002E1,7.4336005E2,8.640001E1,6.0800004E0,1.2800001E1,9.6E0],"tree_param":{"num_deleted":"0","num_feature":"40","num_nodes":"13","size_leaf_vector":"1"}},{"base_weights":[-3.278044E-3,-3.4391022E-1,3.8722637E-1,-1.7730829E-1,3.844495E-1],"categories":[],"categories_nodes":[],"categories_segments":[],"categories_sizes":[],"default_left":[0,0,0,0,0],"id":5,"left_children":[1,3,-1,-1,-1],"loss_changes":[4.0292316E2,2.9140668E2,0E0,0E0,0E0],"parents":[2147483647,0,0,1,1],"right_children":[2,4,-1,-1,-1],"split_conditions":[1.4141537E1,2.5550045E1,3.8722637E-1,-1.7730829E-1,3.844495E-1],"split_indices":[19,14,0,0,0],"split_type":[0,0,0,0,0],"sum_hessian":[9.120881E2,7.22608E2,1.8948009E2,6.277977E2,9.481025E1],"tree_param":{"num_deleted":"0","num_feature":"40","num_nodes":"5","size_leaf_vector":"1"}},{"base_weights":[-2.848078E-3,5.9989774E-1,-3.5048953E-1,1.246949E0,-1.7595199E-1,-5.330952E-1,6.362509E-1,-1.3593078E-1,1.2734994E0,-5.827459E-1,5.9478736E-1,3.8407037E-1,-1.7157826E-1,-1.1044133E-1,3.8632903E-1,-2.8627667E-1,-1.7602164E-1,-1.5682642E-1,3.777588E-1,-1.5377404E-1,1.9582322E-1],"categories":[],"categories_nodes":[],"categories_segments":[],"categories_sizes":[],"default_left":[0,0,0,0,0,0,0,0,0,0,0,0,0,0,0,0,0,0,0,0,0],"id":6,"left_children":[1,3,5,7,-1,9,11,-1,13,15,17,-1,-1,-1,-1,19,-1,-1,-1,-1,-1],"loss_changes":[1.9155132E2,2.5743018E2,1.0480308E2,1.0358185E1,0E0,2.7773788E1,7.1528E1,0E0,5.476471E0,3.8796997E-1,1.6359278E1,0E0,0E0,0E0,0E0,2.0757604E0,0E0,0E0,0E0,0E0,0E0],"parents":[2147483647,0,0,1,1,2,2,3,3,5,5,6,6,8,8,9,9,10,10,15,15],"right_children":[2,4,6,8,-1,10,12,-1,14,16,18,-1,-1,-1,-1,20,-1,-1,-1,-1,-1],"split_conditions":[0E0,1.3859482E2,7.889774E0,-8.165165E2,-1.7595199E-1,1.8685265E2,1.4141537E1,-1.3593078E-1,-8.6080554E2,0E0,8.966653E1,3.8407037E-1,-1.7157826E-1,-1.1044133E-1,3.8632903E-1,8.6865395E1,-1.7602164E-1,-1.5682642E-1,3.777588E-1,-1.5377404E-1,1.9582322E-1],"split_indices":[9,8,12,8,0,13,19,0,9,13,1,0,0,0,0,1,0,0,0,0,0],"split_type":[0,0,0,0,0,0,0,0,0,0,0,0,0,0,0,0,0,0,0,0,0],"sum_hessian":[9.121505E2,3.333894E2,5.787611E2,2.1569876E2,1.1769064E2,4.887694E2,8.999167E1,3.069811E0,2.1262895E2,4.6862338E2,2.0146032E1,5.8663303E1,3.1328365E1,1.6178846E0,2.1101108E2,7.193633E0,4.6142975E2,7.5910354E0,1.25549965E1,6.1625867E0,1.0310464E0],"tree_param":{"num_deleted":"0","num_feature":"40","num_nodes":"21","size_leaf_vector":"1"}},{"base_weights":[3.4907057E-3,-1.9754246E-1,8.383691E-1,-4.107216E-1,8.234282E-1,-1.0830395E-1,1.1879761E0,-4.8748666E-1,1.0026208E0,-3.0342084E-1,1.2678705E0,-1.7658846E-1,3.6634538E-1,3.890465E-1,-1.581577E-1,-5.529512E-1,9.8697853E-1,1.4815158E0,-1.5609272E-1,3.5919386E-1,-1.7296097E-1,3.8940027E-1,-1.0808079E-1,1.1461582E0,-5.732766E-1,-1.4981848E-1,4.28974E-1,3.8222954E-1,6.009309E-1,4.3677998E-1,-9.043442E-2,3.196043E-1,-1.7669699E-1],"categories":[],"categories_nodes":[],"categories_segments":[],"categories_sizes":[],"default_left":[0,0,0,0,0,0,0,0,0,0,0,0,0,0,0,0,0,0,0,0,0,0,0,0,0,0,0,0,0,0,0,0,0],"id":7,"left_children":[1,3,5,7,9,11,13,15,17,19,21,-1,-1,-1,-1,23,25,27,-1,-1,-1,-1,-1,29,31,-1,-1,-1,-1,-1,-1,-1,-1],"loss_changes":[1.530127E2,1.6025842E2,5.868312E1,6.6509186E1,6.4114204E1,3.1773796E1,2.482042E1,5.6321274E1,2.3872456E1,1.5773618E1,4.9538574E0,0E0,0E0,0E0,0E0,1.9786362E1,1.712296E1,8.301163E-2,0E0,0E0,0E0,0E0,0E0,3.5246181E0,1.4738266E1,0E0,0E0,0E0,0E0,0E0,0E0,0E0,0E0],"parents":[2147483647,0,0,1,1,2,2,3,3,4,4,5,5,6,6,7,7,8,8,9,9,10,10,15,15,16,16,17,17,23,23,24,24],"right_children":[2,4,6,8,10,12,14,16,18,20,22,-1,-1,-1,-1,24,26,28,-1,-1,-1,-1,-1,30,32,-1,-1,-1,-1,-1,-1,-1,-1],"split_conditions":[2.9333115E2,2.628305E2,5.1267033E1,4.4423254E2,2.377221E0,1.1242575E2,7.889774E0,5.614234E2,3.4783558E1,-8.165165E2,2.1384412E-1,-1.7658846E-1,3.6634538E-1,3.890465E-1,-1.581577E-1,-7.462481E2,1.635548E2,9.497492E1,-1.5609272E-1,3.5919386E-1,-1.7296097E-1,3.8940027E-1,-1.0808079E-1,-7.809307E2,-1.0461423E3,-1.4981848E-1,4.28974E-1,3.8222954E-1,6.009309E-1,4.3677998E-1,-9.043442E-2,3.196043E-1,-1.7669699E-1],"split_indices":[0,1,8,7,9,9,12,6,3,8,13,0,0,0,0,8,0,0,0,0,0,0,0,0,5,0,0,0,0,0,0,0,0],"split_type":[0,0,0,0,0,0,0,0,0,0,0,0,0,0,0,0,0,0,0,0,0,0,0,0,0,0,0,0,0,0,0,0,0],"sum_hessian":[9.096809E2,7.337598E2,1.7592111E2,6.0750934E2,1.262505E2,4.7632122E1,1.2828899E2,5.768339E2,3.06754E1,3.5799904E1,9.045059E1,3.5399673E1,1.223245E1,1.2086288E2,7.426107E0,5.5291034E2,2.3923595E1,2.3357637E1,7.3177633E0,4.9910207E0,3.0808884E1,8.900622E1,1.4443783E0,5.8811517E0,5.470292E2,5.463167E0,1.8460428E1,1.9175095E1,4.182543E0,4.8397384E0,1.0414133E0,4.5613575E0,5.4246783E2],"tree_param":{"num_deleted":"0","num_feature":"40","num_nodes":"33","size_leaf_vector":"1"}},{"base_weights":[4.6858084E-3,2.9780877E-1,-1.7732503E-1,-1.7764373E-1,6.601849E-1,9.911943E-1,-1.7781593E-1,1.382814E0,-1.7508999E-1,1.3260874E0,6.526562E-1,-9.830991E-2,4.006242E-1],"categories":[],"categories_nodes":[],"categories_segments":[],"categories_sizes":[],"default_left":[0,0,0,0,0,0,0,0,0,0,0,0,0],"id":8,"left_children":[1,3,-1,-1,5,7,-1,9,-1,11,-1,-1,-1],"loss_changes":[1.5940709E2,1.9769156E2,0E0,0E0,1.8108882E2,2.1336517E2,0E0,9.540222E0,0E0,4.4542847E0,0E0,0E0,0E0],"parents":[2147483647,0,0,1,1,4,4,5,5,7,7,9,9],"right_children":[2,4,-1,-1,6,8,-1,10,-1,12,-1,-1,-1],"split_conditions":[5.468636E-1,0E0,-1.7732503E-1,-1.7764373E-1,4.03222E2,4.1460504E2,-1.7781593E-1,4.750944E2,-1.7508999E-1,-9.9697046E2,6.526562E-1,-9.830991E-2,4.006242E-1],"split_indices":[10,10,0,0,4,5,0,0,0,5,0,0,0],"split_type":[0,0,0,0,0,0,0,0,0,0,0,0,0],"sum_hessian":[9.1080054E2,6.107882E2,3.000123E2,1.7655505E2,4.342332E2,3.4365152E2,9.058166E1,2.7531067E2,6.834087E1,2.5941928E2,1.5891365E1,1.263352E0,2.5815594E2],"tree_param":{"num_deleted":"0","num_feature":"40","num_nodes":"13","size_leaf_vector":"1"}},{"base_weights":[-2.0345247E-3,-2.403377E-1,1.236695E0,-5.478869E-1,1.216117E0,-1.4796704E-1,3.8964152E-1,4.8305577E-1,-1.7727959E-1,3.8603804E-1,-1.4889216E-1,-1.658818E-1,3.908741E-1],"categories":[],"categories_nodes":[],"categories_segments":[],"categories_sizes":[],"default_left":[0,0,0,0,0,0,0,0,0,0,0,0,0],"id":9,"left_children":[1,3,5,7,9,-1,-1,11,-1,-1,-1,-1,-1],"loss_changes":[2.6981674E2,3.4403168E2,1.6485489E1,2.840271E1,1.6851303E1,0E0,0E0,2.275704E1,0E0,0E0,0E0,0E0,0E0],"parents":[2147483647,0,0,1,1,2,2,3,3,4,4,7,7],"right_children":[2,4,6,8,10,-1,-1,12,-1,-1,-1,-1,-1],"split_conditions":[4.2478387E2,5.227319E2,-3.498733E2,-9.1560315E2,1.4100414E2,-1.4796704E-1,3.8964152E-1,-6.929448E2,-1.7727959E-1,3.8603804E-1,-1.4889216E-1,-1.658818E-1,3.908741E-1],"split_indices":[5,4,8,5,0,0,0,7,0,0,0,0,0],"split_type":[0,0,0,0,0,0,0,0,0,0,0,0,0],"sum_hessian":[9.120276E2,7.655578E2,1.4646979E2,6.326E2,1.3295784E2,4.835918E0,1.4163387E2,2.4944689E1,6.076553E2,1.2792651E2,5.031321E0,1.11636095E1,1.378108E1],"tree_param":{"num_deleted":"0","num_feature":"40","num_nodes":"13","size_leaf_vector":"1"}},{"base_weights":[-3.4238568E-3,-3.179264E-1,2.8499514E-1,-1.7027868E-1,2.8330216E-1],"categories":[],"categories_nodes":[],"categories_segments":[],"categories_sizes":[],"default_left":[0,0,0,0,0],"id":10,"left_children":[1,3,-1,-1,-1],"loss_changes":[2.4242294E2,1.9212532E2,0E0,0E0,0E0],"parents":[2147483647,0,0,1,1],"right_children":[2,4,-1,-1,-1],"split_conditions":[1.4141537E1,2.5550045E1,2.8499514E-1,-1.7027868E-1,2.8330216E-1],"split_indices":[19,14,0,0,0],"split_type":[0,0,0,0,0],"sum_hessian":[8.064758E2,6.069323E2,1.9954352E2,5.071678E2,9.976454E1],"tree_param":{"num_deleted":"0","num_feature":"40","num_nodes":"5","size_leaf_vector":"1"}},{"base_weights":[-2.9924794E-3,4.8040485E-1,-3.2270885E-1,9.208977E-1,-1.6882816E-1,-5.0532734E-1,5.090494E-1,-1.2637787E-1,9.3856245E-1,-5.575091E-1,4.7697324E-1,2.8276446E-1,-1.6374455E-1,-1.00106046E-1,2.8437433E-1,-2.4090233E-1,-1.686442E-1,-1.4719109E-1,2.7775037E-1,-1.4360838E-1,1.6120473E-1],"categories":[],"categories_nodes":[],"categories_segments":[],"categories_sizes":[],"default_left":[0,0,0,0,0,0,0,0,0,0,0,0,0,0,0,0,0,0,0,0,0],"id":11,"left_children":[1,3,5,7,-1,9,11,-1,13,15,17,-1,-1,-1,-1,19,-1,-1,-1,-1,-1],"loss_changes":[1.2508968E2,1.4857751E2,7.4254654E1,5.775589E0,0E0,2.0767197E1,4.0847824E1,0E0,2.984909E0,4.22966E-1,9.450777E0,0E0,0E0,0E0,0E0,1.5970678E0,0E0,0E0,0E0,0E0,0E0],"parents":[2147483647,0,0,1,1,2,2,3,3,5,5,6,6,8,8,9,9,10,10,15,15],"right_children":[2,4,6,8,-1,10,12,-1,14,16,18,-1,-1,-1,-1,20,-1,-1,-1,-1,-1],"split_conditions":[0E0,1.3859482E2,7.889774E0,-8.165165E2,-1.6882816E-1,1.8685265E2,1.4141537E1,-1.2637787E-1,-8.6080554E2,0E0,8.966653E1,2.8276446E-1,-1.6374455E-1,-1.00106046E-1,2.8437433E-1,-2.8170367E2,-1.686442E-1,-1.4719109E-1,2.7775037E-1,-1.4360838E-1,1.6120473E-1],"split_indices":[9,8,12,8,0,13,19,0,9,13,1,0,0,0,0,0,0,0,0,0,0],"split_type":[0,0,0,0,0,0,0,0,0,0,0,0,0,0,0,0,0,0,0,0,0],"sum_hessian":[8.073768E2,3.2121338E2,4.861634E2,2.2592868E2,9.5284706E1,3.9896106E2,8.720232E1,2.6381273E0,2.2329056E2,3.7924713E2,1.9713924E1,6.187935E1,2.5322968E1,1.3762908E0,2.2191426E2,6.239956E0,3.7300717E2,6.217592E0,1.3496332E1,5.0743995E0,1.1655566E0],"tree_param":{"num_deleted":"0","num_feature":"40","num_nodes":"21","size_leaf_vector":"1"}},{"base_weights":[4.9412055E-3,-1.7748971E-1,6.4248186E-1,-3.8321275E-1,6.31148E-1,-4.8411822E-1,8.0409616E-1,-4.6296084E-1,7.5086814E-1,-2.7753985E-1,9.2689997E-1,-1.6697264E-1,1.4781362E-1,9.3612534E-1,-1.5968598E-1,-5.3861564E-1,6.1715674E-1,3.117241E-1,-1.4636622E-1,2.674405E-1,-1.6515066E-1,2.8804535E-1,-1.1779518E-1,-1.0305401E-1,2.8563327E-1,2.7659088E-1,-5.571246E-1,3.1751773E-1,-1.5256803E-1,1.5827188E-1,-1.7012317E-1],"categories":[],"categories_nodes":[],"categories_segments":[],"categories_sizes":[],"default_left":[0,0,0,0,0,0,0,0,0,0,0,0,0,0,0,0,0,0,0,0,0,0,0,0,0,0,0,0,0,0,0],"id":12,"left_children":[1,3,5,7,9,11,13,15,17,19,21,-1,-1,23,-1,25,27,-1,-1,-1,-1,-1,-1,-1,-1,-1,29,-1,-1,-1,-1],"loss_changes":[9.426066E1,1.0507165E2,3.3219147E1,4.5837135E1,3.4705135E1,1.919487E0,2.8387497E1,3.878382E1,1.2441107E1,1.0779774E1,4.6302032E0,0E0,0E0,3.2770844E0,0E0,1.2416206E1,1.6068932E1,0E0,0E0,0E0,0E0,0E0,0E0,0E0,0E0,0E0,4.9995117E0,0E0,0E0,0E0,0E0],"parents":[2147483647,0,0,1,1,2,2,3,3,4,4,5,5,6,6,7,7,8,8,9,9,10,10,13,13,15,15,16,16,26,26],"right_children":[2,4,6,8,10,12,14,16,18,20,22,-1,-1,24,-1,26,28,-1,-1,-1,-1,-1,-1,-1,-1,-1,30,-1,-1,-1,-1],"split_conditions":[2.8670398E2,2.5855188E2,5.468636E-1,4.4423254E2,2.377221E0,3.8726038E2,7.889774E0,5.0130453E2,3.4783558E1,-8.165165E2,2.1384412E-1,-1.6697264E-1,1.4781362E-1,-9.65813E1,-1.5968598E-1,-8.8410876E2,7.818733E1,3.117241E-1,-1.4636622E-1,2.674405E-1,-1.6515066E-1,2.8804535E-1,-1.1779518E-1,-1.0305401E-1,2.8563327E-1,2.7659088E-1,-1.0461423E3,3.1751773E-1,-1.5256803E-1,1.5827188E-1,-1.7012317E-1],"split_indices":[0,1,10,7,9,4,12,6,3,8,13,0,0,2,0,0,2,0,0,0,0,0,0,0,0,0,5,0,0,0,0],"split_type":[0,0,0,0,0,0,0,0,0,0,0,0,0,0,0,0,0,0,0,0,0,0,0,0,0,0,0,0,0,0,0],"sum_hessian":[8.084656E2,6.2915564E2,1.7930995E2,5.0197565E2,1.2717997E2,2.2245165E1,1.5706479E2,4.6954892E2,3.2426712E1,3.1244352E1,9.5935616E1,2.1109568E1,1.1355973E0,1.4321521E2,1.3849572E1,4.3928162E2,3.0267317E1,2.6437E1,5.989713E0,5.4855666E0,2.5758785E1,9.384325E1,2.0923743E0,1.5142106E0,1.41701E2,4.886232E0,4.343954E2,2.1787357E1,8.479961E0,3.4766698E0,4.309187E2],"tree_param":{"num_deleted":"0","num_feature":"40","num_nodes":"31","size_leaf_vector":"1"}},{"base_weights":[3.6948805E-3,2.4698345E-1,-1.7011529E-1,-1.7033333E-1,5.207346E-1,7.474697E-1,-1.6988519E-1,9.896957E-1,-1.6750537E-1,-8.688974E-2,9.951402E-1,2.9082075E-1,3.729039E-1],"categories":[],"categories_nodes":[],"categories_segments":[],"categories_sizes":[],"default_left":[0,0,0,0,0,0,0,0,0,0,0,0,0],"id":13,"left_children":[1,3,-1,-1,5,7,-1,9,-1,-1,11,-1,-1],"loss_changes":[1.1306356E2,1.2762736E2,0E0,0E0,1.0586989E2,1.1265964E2,0E0,2.3731384E0,0E0,0E0,6.9799805E-1,0E0,0E0],"parents":[2147483647,0,0,1,1,4,4,5,5,7,7,10,10],"right_children":[2,4,-1,-1,6,8,-1,10,-1,-1,12,-1,-1],"split_conditions":[5.468636E-1,0E0,-1.7011529E-1,-1.7033333E-1,4.03222E2,4.1460504E2,-1.6988519E-1,-9.9697046E2,-1.6750537E-1,-8.688974E-2,4.657847E2,2.9082075E-1,3.729039E-1],"split_indices":[10,10,0,0,4,5,0,5,0,0,0,0,0],"split_type":[0,0,0,0,0,0,0,0,0,0,0,0,0],"sum_hessian":[8.1224225E2,5.69887E2,2.4235524E2,1.4305139E2,4.2683563E2,3.5342834E2,7.3407265E1,2.983309E2,5.509744E1,1.0430356E0,2.9728787E2,2.7377185E2,2.3516035E1],"tree_param":{"num_deleted":"0","num_feature":"40","num_nodes":"13","size_leaf_vector":"1"}},{"base_weights":[-2.2524009E-3,-2.1842858E-1,9.130068E-1,-5.2157986E-1,9.011189E-1,-1.3782595E-1,2.858159E-1,3.8304415E-1,-1.7021634E-1,2.8403258E-1,-1.3913417E-1,-1.5811707E-1,2.8736132E-1],"categories":[],"categories_nodes":[],"categories_segments":[],"categories_sizes":[],"default_left":[0,0,0,0,0,0,0,0,0,0,0,0,0],"id":14,"left_children":[1,3,5,7,9,-1,-1,11,-1,-1,-1,-1,-1],"loss_changes":[1.6014722E2,2.2268744E2,8.866531E0,2.1594421E1,9.156036E0,0E0,0E0,1.382442E1,0E0,0E0,0E0,0E0,0E0],"parents":[2147483647,0,0,1,1,2,2,3,3,4,4,7,7],"right_children":[2,4,6,8,10,-1,-1,12,-1,-1,-1,-1,-1],"split_conditions":[4.2478387E2,5.227319E2,-3.498733E2,-9.1560315E2,1.4100414E2,-1.3782595E-1,2.858159E-1,-6.929448E2,-1.7021634E-1,2.8403258E-1,-1.3913417E-1,-1.5811707E-1,2.8736132E-1],"split_indices":[5,4,8,5,0,0,0,7,0,0,0,0,0],"split_type":[0,0,0,0,0,0,0,0,0,0,0,0,0],"sum_hessian":[8.074E2,6.537511E2,1.5364893E2,5.1486896E2,1.3888219E2,4.0237627E0,1.4962515E2,2.4460297E1,4.9040863E2,1.3468332E2,4.198858E0,9.5009365E0,1.4959359E1],"tree_param":{"num_deleted":"0","num_feature":"40","num_nodes":"13","size_leaf_vector":"1"}},{"base_weights":[-3.5221672E-3,-2.9993045E-1,2.3550005E-1,-1.6503958E-1,2.3409598E-1],"categories":[],"categories_nodes":[],"categories_segments":[],"categories_sizes":[],"default_left":[0,0,0,0,0],"id":15,"left_children":[1,3,-1,-1,-1],"loss_changes":[1.5973273E2,1.3467746E2,0E0,0E0,0E0],"parents":[2147483647,0,0,1,1],"right_children":[2,4,-1,-1,-1],"split_conditions":[1.4141537E1,2.5550045E1,2.3550005E-1,-1.6503958E-1,2.3409598E-1],"split_indices":[19,14,0,0,0],"split_type":[0,0,0,0,0],"sum_hessian":[6.8141565E2,4.9569995E2,1.8571571E2,4.028783E2,9.282166E1],"tree_param":{"num_deleted":"0","num_feature":"40","num_nodes":"5","size_leaf_vector":"1"}},{"base_weights":[-3.0995554E-3,4.1398886E-1,-3.027207E-1,7.616688E-1,-1.6332966E-1,-4.8388365E-1,4.3837598E-1,-1.1713206E-1,7.7591556E-1,-5.3782976E-1,4.0892315E-1,2.3338073E-1,-1.5733546E-1,-9.041144E-2,2.3502229E-1,-2.0238008E-1,-5.432078E-1,-1.3837717E-1,2.2761317E-1,-1.3502231E-1,1.4186452E-1,-1.6492383E-1,-4.1733614E-1,-1.5571716E-1,1.868193E-1],"categories":[],"categories_nodes":[],"categories_segments":[],"categories_sizes":[],"default_left":[0,0,0,0,0,0,0,0,0,0,0,0,0,0,0,0,0,0,0,0,0,0,0,0,0],"id":16,"left_children":[1,3,5,7,-1,9,11,-1,13,15,17,-1,-1,-1,-1,19,21,-1,-1,-1,-1,-1,23,-1,-1],"loss_changes":[8.562352E1,9.5861725E1,5.3744328E1,3.759758E0,0E0,1.5674393E1,2.618612E1,0E0,1.9178543E0,4.3673706E-1,6.0879736E0,0E0,0E0,0E0,0E0,1.2791584E0,1.5525818E-2,0E0,0E0,0E0,0E0,0E0,2.3174496E0,0E0,0E0],"parents":[2147483647,0,0,1,1,2,2,3,3,5,5,6,6,8,8,9,9,10,10,15,15,16,16,22,22],"right_children":[2,4,6,8,-1,10,12,-1,14,16,18,-1,-1,-1,-1,20,22,-1,-1,-1,-1,-1,24,-1,-1],"split_conditions":[0E0,1.3859482E2,7.889774E0,-8.165165E2,-1.6332966E-1,1.8685265E2,1.4141537E1,-1.1713206E-1,-8.6080554E2,0E0,8.966653E1,2.3338073E-1,-1.5733546E-1,-9.041144E-2,2.3502229E-1,8.6865395E1,3.7442963E2,-1.3837717E-1,2.2761317E-1,-1.3502231E-1,1.4186452E-1,-1.6492383E-1,3.196588E2,-1.5571716E-1,1.868193E-1],"split_indices":[9,8,12,8,0,13,19,0,9,13,1,0,0,0,0,1,11,0,0,0,0,0,5,0,0],"split_type":[0,0,0,0,0,0,0,0,0,0,0,0,0,0,0,0,0,0,0,0,0,0,0,0,0],"sum_hessian":[6.8315796E2,2.854353E2,3.9772266E2,2.0960396E2,7.583134E1,3.1987537E2,7.7847275E1,2.2377176E0,2.0736624E2,3.0202377E2,1.7851593E1,5.769281E1,2.015446E1,1.1612766E0,2.0620496E2,5.375321E0,2.9664847E2,5.0270114E0,1.2824582E1,4.176728E0,1.198593E0,2.7879895E2,1.7849504E1,1.6715616E1,1.1338892E0],"tree_param":{"num_deleted":"0","num_feature":"40","num_nodes":"25","size_leaf_vector":"1"}},{"base_weights":[5.5932403E-3,-1.738674E-1,5.1806134E-1,-4.355148E-1,3.7067866E-1,2.4402404E-1,-1.6107799E-1,-1.6519299E-1,4.8051795E-1,2.404623E-1,-1.620702E-1,-1.5032303E-1,2.3230858E-1],"categories":[],"categories_nodes":[],"categories_segments":[],"categories_sizes":[],"default_left":[0,0,0,0,0,0,0,0,0,0,0,0,0],"id":17,"left_children":[1,3,5,7,9,-1,-1,-1,11,-1,-1,-1,-1],"loss_changes":[6.3343613E1,7.284615E1,5.6098324E1,3.665278E1,6.562576E1,0E0,0E0,0E0,1.1653516E1,0E0,0E0,0E0,0E0],"parents":[2147483647,0,0,1,1,2,2,3,3,4,4,8,8],"right_children":[2,4,6,8,10,-1,-1,-1,12,-1,-1,-1,-1],"split_conditions":[1.7207559E2,1.2700467E2,2.1384412E-1,4.9104904E2,2.5550045E1,2.4402404E-1,-1.6107799E-1,-1.6519299E-1,8.96247E1,2.404623E-1,-1.620702E-1,-1.5032303E-1,2.3230858E-1],"split_indices":[9,8,13,1,14,0,0,0,11,0,0,0,0],"split_type":[0,0,0,0,0,0,0,0,0,0,0,0,0],"sum_hessian":[6.8677875E2,5.091432E2,1.7763557E2,3.4403772E2,1.651055E2,1.3896127E2,3.8674313E1,3.0598047E2,3.8057228E1,1.1216937E2,5.2936123E1,8.605396E0,2.9451832E1],"tree_param":{"num_deleted":"0","num_feature":"40","num_nodes":"13","size_leaf_vector":"1"}},{"base_weights":[3.4066099E-3,2.1752602E-1,-1.6469468E-1,-1.6483048E-1,4.4608995E-1,6.254411E-1,-1.6378585E-1,8.0730706E-1,-1.6161703E-1,-1.427183E-2,2.4346647E-1],"categories":[],"categories_nodes":[],"categories_segments":[],"categories_sizes":[],"default_left":[0,0,0,0,0,0,0,0,0,0,0],"id":18,"left_children":[1,3,-1,-1,5,7,-1,9,-1,-1,-1],"loss_changes":[8.188973E1,8.7708755E1,0E0,0E0,6.883119E1,6.955505E1,0E0,1.0653992E0,0E0,0E0,0E0],"parents":[2147483647,0,0,1,1,4,4,5,5,7,7],"right_children":[2,4,-1,-1,6,8,-1,10,-1,-1,-1],"split_conditions":[5.468636E-1,0E0,-1.6469468E-1,-1.6483048E-1,4.03222E2,4.1460504E2,-1.6378585E-1,-9.321291E2,-1.6161703E-1,-1.427183E-2,2.4346647E-1],"split_indices":[10,10,0,0,4,5,0,5,0,0,0],"split_type":[0,0,0,0,0,0,0,0,0,0,0],"sum_hessian":[6.9034485E2,4.979381E2,1.9240675E2,1.1399999E2,3.839381E2,3.2546664E2,5.8471478E1,2.8175705E2,4.3709595E1,1.3426743E0,2.8041437E2],"tree_param":{"num_deleted":"0","num_feature":"40","num_nodes":"11","size_leaf_vector":"1"}},{"base_weights":[-2.4531952E-3,-2.036419E-1,7.553188E-1,-5.018425E-1,7.4590504E-1,-1.2771061E-1,2.3573978E-1,3.2474893E-1,-1.6496156E-1,2.3460832E-1,-1.3048309E-1,-1.5077917E-1,2.3557606E-1],"categories":[],"categories_nodes":[],"categories_segments":[],"categories_sizes":[],"default_left":[0,0,0,0,0,0,0,0,0,0,0,0,0],"id":19,"left_children":[1,3,5,7,9,-1,-1,11,-1,-1,-1,-1,-1],"loss_changes":[1.0442493E2,1.5363013E2,5.507538E0,1.655465E1,5.8748627E0,0E0,0E0,9.264384E0,0E0,0E0,0E0,0E0,0E0],"parents":[2147483647,0,0,1,1,2,2,3,3,4,4,7,7],"right_children":[2,4,6,8,10,-1,-1,12,-1,-1,-1,-1,-1],"split_conditions":[4.2478387E2,5.227319E2,-3.498733E2,-9.1560315E2,1.4100414E2,-1.2771061E-1,2.3573978E-1,-6.929448E2,-1.6496156E-1,2.3460832E-1,-1.3048309E-1,-1.5077917E-1,2.3557606E-1],"split_indices":[5,4,8,5,0,0,0,7,0,0,0,0,0],"split_type":[0,0,0,0,0,0,0,0,0,0,0,0,0],"sum_hessian":[6.82946E2,5.402426E2,1.4270332E2,4.1148825E2,1.2875438E2,3.2640831E0,1.3943925E2,2.2280302E1,3.8920795E2,1.25260345E2,3.494028E0,7.9342175E0,1.4346084E1],"tree_param":{"num_deleted":"0","num_feature":"40","num_nodes":"13","size_leaf_vector":"1"}},{"base_weights":[-3.2874022E-3,-2.8686467E-1,2.07041E-1,-1.6106258E-1,2.0567489E-1],"categories":[],"categories_nodes":[],"categories_segments":[],"categories_sizes":[],"default_left":[0,0,0,0,0],"id":20,"left_children":[1,3,-1,-1,-1],"loss_changes":[1.0990839E2,9.6813126E1,0E0,0E0,0E0],"parents":[2147483647,0,0,1,1],"right_children":[2,4,-1,-1,-1],"split_conditions":[1.4141537E1,2.5550045E1,2.07041E-1,-1.6106258E-1,2.0567489E-1],"split_indices":[19,14,0,0,0],"split_type":[0,0,0,0,0],"sum_hessian":[5.569272E2,3.956937E2,1.612335E2,3.1512485E2,8.056885E1],"tree_param":{"num_deleted":"0","num_feature":"40","num_nodes":"5","size_leaf_vector":"1"}},{"base_weights":[-3.1358963E-3,3.7283555E-1,-2.879271E-1,6.6962373E-1,-1.5894301E-1,-4.6693513E-1,3.937262E-1,-1.077336E-1,6.8223774E-1,-5.220012E-1,3.6257893E-1,2.0461862E-1,-1.5176202E-1,1.8510325E-1,2.0659123E-1,-1.6893986E-1,-5.282251E-1,-1.2985711E-1,1.9704027E-1,-2.9005872E-2,1.2034528E-1,-1.2590148E-1,1.1925511E-1,-1.608632E-1,-3.807044E-1,-1.5025744E-1,1.9758858E-1],"categories":[],"categories_nodes":[],"categories_segments":[],"categories_sizes":[],"default_left":[0,0,0,0,0,0,0,0,0,0,0,0,0,0,0,0,0,0,0,0,0,0,0,0,0,0,0],"id":21,"left_children":[1,3,5,7,-1,9,11,-1,13,15,17,-1,-1,19,-1,21,23,-1,-1,-1,-1,-1,-1,-1,25,-1,-1],"loss_changes":[6.009326E1,6.515788E1,3.9149445E1,2.612999E0,0E0,1.1762882E1,1.7713707E1,0E0,4.4716644E-1,4.3377686E-1,4.113783E0,0E0,0E0,2.6180124E-1,0E0,9.61235E-1,7.083893E-2,0E0,0E0,0E0,0E0,0E0,0E0,0E0,2.2573469E0,0E0,0E0],"parents":[2147483647,0,0,1,1,2,2,3,3,5,5,6,6,8,8,9,9,10,10,13,13,15,15,16,16,24,24],"right_children":[2,4,6,8,-1,10,12,-1,14,16,18,-1,-1,20,-1,22,24,-1,-1,-1,-1,-1,-1,-1,26,-1,-1],"split_conditions":[0E0,1.3859482E2,7.889774E0,-8.165165E2,-1.5894301E-1,1.8685265E2,1.4141537E1,-1.077336E-1,-5.5818854E2,0E0,8.966653E1,2.0461862E-1,-1.5176202E-1,1.3084135E2,2.0659123E-1,8.6865395E1,3.7442963E2,-1.2985711E-1,1.9704027E-1,-2.9005872E-2,1.2034528E-1,-1.2590148E-1,1.1925511E-1,-1.608632E-1,1.9233568E2,-1.5025744E-1,1.9758858E-1],"split_indices":[9,8,12,8,0,13,19,0,9,13,1,0,0,0,0,1,11,0,0,0,0,0,0,0,2,0,0],"split_type":[0,0,0,0,0,0,0,0,0,0,0,0,0,0,0,0,0,0,0,0,0,0,0,0,0,0,0],"sum_hessian":[5.5923193E2,2.4089783E2,3.183341E2,1.8148428E2,5.9413544E1,2.5237361E2,6.59605E1,1.8655982E0,1.7961868E2,2.3701073E2,1.53628845E1,5.0133682E1,1.5826818E1,2.6632001E0,1.7695549E2,4.593295E0,2.3241743E2,4.020952E0,1.1341932E1,1.3955158E0,1.2676845E0,3.3635921E0,1.2297032E0,2.1798283E2,1.4434588E1,1.3403188E1,1.0314001E0],"tree_param":{"num_deleted":"0","num_feature":"40","num_nodes":"27","size_leaf_vector":"1"}},{"base_weights":[5.8946507E-3,-1.6363055E-1,4.626671E-1,-4.1985992E-1,3.3499303E-1,2.1276517E-1,-1.5622154E-1,-1.6109605E-1,4.268671E-1,2.0978756E-1,-1.5749358E-1,-1.4303175E-1,2.0336188E-1],"categories":[],"categories_nodes":[],"categories_segments":[],"categories_sizes":[],"default_left":[0,0,0,0,0,0,0,0,0,0,0,0,0],"id":22,"left_children":[1,3,5,7,9,-1,-1,-1,11,-1,-1,-1,-1],"loss_changes":[4.3811913E1,5.2864357E1,3.750059E1,2.7307514E1,4.4426018E1,0E0,0E0,0E0,7.975237E0,0E0,0E0,0E0,0E0],"parents":[2147483647,0,0,1,1,2,2,3,3,4,4,8,8],"right_children":[2,4,6,8,10,-1,-1,-1,12,-1,-1,-1,-1],"split_conditions":[1.7207559E2,1.2700467E2,2.1384412E-1,4.9104904E2,2.5550045E1,2.1276517E-1,-1.5622154E-1,-1.6109605E-1,8.96247E1,2.0978756E-1,-1.5749358E-1,-1.4303175E-1,2.0336188E-1],"split_indices":[9,8,13,1,14,0,0,0,11,0,0,0,0],"split_type":[0,0,0,0,0,0,0,0,0,0,0,0,0],"sum_hessian":[5.63816E2,4.1167126E2,1.5214471E2,2.7203677E2,1.396345E2,1.21869545E2,3.0275162E1,2.393004E2,3.273638E1,9.8215546E1,4.1418957E1,6.9209614E0,2.581542E1],"tree_param":{"num_deleted":"0","num_feature":"40","num_nodes":"13","size_leaf_vector":"1"}},{"base_weights":[3.0625572E-3,1.9826572E-1,-1.6053301E-1,-1.605126E-1,4.000001E-1,5.531965E-1,-1.5892981E-1,7.038149E-1,-1.5683658E-1,-1.3402664E-2,2.1233834E-1],"categories":[],"categories_nodes":[],"categories_segments":[],"categories_sizes":[],"default_left":[0,0,0,0,0,0,0,0,0,0,0],"id":23,"left_children":[1,3,-1,-1,5,7,-1,9,-1,-1,-1],"loss_changes":[5.9738487E1,6.1943855E1,0E0,0E0,4.6987495E1,4.6060112E1,0E0,7.6956177E-1,0E0,0E0,0E0],"parents":[2147483647,0,0,1,1,4,4,5,5,7,7],"right_children":[2,4,-1,-1,6,8,-1,10,-1,-1,-1],"split_conditions":[5.468636E-1,0E0,-1.6053301E-1,-1.605126E-1,4.03222E2,4.1460504E2,-1.5892981E-1,-9.321291E2,-1.5683658E-1,-1.3402664E-2,2.1233834E-1],"split_indices":[10,10,0,0,4,5,0,5,0,0,0],"split_type":[0,0,0,0,0,0,0,0,0,0,0],"sum_hessian":[5.666412E2,4.1628137E2,1.5035983E2,8.945581E1,3.2682556E2,2.8094037E2,4.5885174E1,2.4674625E2,3.4194122E1,1.2508587E0,2.4549539E2],"tree_param":{"num_deleted":"0","num_feature":"40","num_nodes":"11","size_leaf_vector":"1"}},{"base_weights":[-2.6390494E-3,-1.9325452E-1,6.636971E-1,-4.8688126E-1,6.5574276E-1,-1.18151076E-1,2.0692763E-1,2.8300437E-1,-1.6097865E-1,2.0611045E-1,-1.214897E-1,-1.4366935E-1,2.0335178E-1],"categories":[],"categories_nodes":[],"categories_segments":[],"categories_sizes":[],"default_left":[0,0,0,0,0,0,0,0,0,0,0,0,0],"id":24,"left_children":[1,3,5,7,9,-1,-1,11,-1,-1,-1,-1,-1],"loss_changes":[7.120882E1,1.0898949E2,3.7086754E0,1.2570885E1,4.0105515E0,0E0,0E0,6.442277E0,0E0,0E0,0E0,0E0,0E0],"parents":[2147483647,0,0,1,1,2,2,3,3,4,4,7,7],"right_children":[2,4,6,8,10,-1,-1,12,-1,-1,-1,-1,-1],"split_conditions":[4.2478387E2,5.227319E2,-3.498733E2,-9.1560315E2,1.4100414E2,-1.18151076E-1,2.0692763E-1,-6.929448E2,-1.6097865E-1,2.0611045E-1,-1.214897E-1,-1.4366935E-1,2.0335178E-1],"split_indices":[5,4,8,5,0,0,0,7,0,0,0,0,0],"split_type":[0,0,0,0,0,0,0,0,0,0,0,0,0],"sum_hessian":[5.586278E2,4.3492184E2,1.2370595E2,3.2347437E2,1.1144749E2,2.6358519E0,1.210701E2,1.9336243E1,3.0413812E2,1.0859608E2,2.8514128E0,6.5274644E0,1.2808779E1],"tree_param":{"num_deleted":"0","num_feature":"40","num_nodes":"13","size_leaf_vector":"1"}},{"base_weights":[-2.9232965E-3,-2.7720082E-1,1.8912007E-1,-1.5802169E-1,1.8767071E-1],"categories":[],"categories_nodes":[],"categories_segments":[],"categories_sizes":[],"default_left":[0,0,0,0,0],"id":25,"left_children":[1,3,-1,-1,-1],"loss_changes":[7.755162E1,7.0508865E1,0E0,0E0,0E0],"parents":[2147483647,0,0,1,1],"right_children":[2,4,-1,-1,-1],"split_conditions":[1.4141537E1,2.5550045E1,1.8912007E-1,-1.5802169E-1,1.8767071E-1],"split_indices":[19,14,0,0,0],"split_type":[0,0,0,0,0],"sum_hessian":[4.4444632E2,3.1052676E2,1.3391954E2,2.4360695E2,6.691982E1],"tree_param":{"num_deleted":"0","num_feature":"40","num_nodes":"5","size_leaf_vector":"1"}},{"base_weights":[-2.9945208E-3,3.4552243E-1,-2.7652195E-1,6.1122483E-1,-1.5534016E-1,-4.530444E-1,3.6354995E-1,-9.850509E-2,6.23087E-1,-5.088694E-1,3.290642E-1,1.8625566E-1,-1.4660051E-1,1.6635442E-1,1.8878712E-1,-1.5771858E-1,-3.162163E-1,-1.2133805E-1,1.766105E-1,-2.449483E-2,1.05337575E-1,-1.4903976E-1,2.3004389E-1],"categories":[],"categories_nodes":[],"categories_segments":[],"categories_sizes":[],"default_left":[0,0,0,0,0,0,0,0,0,0,0,0,0,0,0,0,0,0,0,0,0,0,0],"id":26,"left_children":[1,3,5,7,-1,9,11,-1,13,15,17,-1,-1,19,-1,-1,21,-1,-1,-1,-1,-1,-1],"loss_changes":[4.281642E1,4.562107E1,2.8596628E1,1.89291E0,0E0,8.798725E0,1.2352989E1,0E0,3.201332E-1,4.343338E-1,2.8620682E0,0E0,0E0,1.8302804E-1,0E0,0E0,3.7817783E0,0E0,0E0,0E0,0E0,0E0,0E0],"parents":[2147483647,0,0,1,1,2,2,3,3,5,5,6,6,8,8,9,9,10,10,13,13,16,16],"right_children":[2,4,6,8,-1,10,12,-1,14,16,18,-1,-1,20,-1,-1,22,-1,-1,-1,-1,-1,-1],"split_conditions":[0E0,1.3859482E2,7.889774E0,-8.165165E2,-1.5534016E-1,1.8685265E2,1.4141537E1,-9.850509E-2,-5.5818854E2,3.6961774E2,8.966653E1,1.8625566E-1,-1.4660051E-1,1.3084135E2,1.8878712E-1,-1.5771858E-1,3.3095212E2,-1.2133805E-1,1.766105E-1,-2.449483E-2,1.05337575E-1,-1.4903976E-1,2.3004389E-1],"split_indices":[9,8,12,8,0,13,19,0,9,11,1,0,0,0,0,0,3,0,0,0,0,0,0],"split_type":[0,0,0,0,0,0,0,0,0,0,0,0,0,0,0,0,0,0,0,0,0,0,0],"sum_hessian":[4.4714163E2,1.9650287E2,2.5063876E2,1.504816E2,4.6021275E1,1.9668745E2,5.3951317E1,1.5435029E0,1.489381E2,1.8390977E2,1.2777668E1,4.164832E1,1.2302998E1,2.3685255E0,1.4656956E2,1.6752106E2,1.6388723E1,3.1945837E0,9.583085E0,1.2495089E0,1.1190165E0,1.4510543E1,1.8781815E0],"tree_param":{"num_deleted":"0","num_feature":"40","num_nodes":"23","size_leaf_vector":"1"}},{"base_weights":[6.1010327E-3,-1.5632866E-1,4.2648873E-1,-4.081267E-1,3.1081372E-1,1.931226E-1,-1.5201494E-1,-1.5795814E-1,3.8930038E-1,6.340873E-1,-1.5363804E-1,-1.3586286E-1,1.8428285E-1,6.693049E-2,1.9195203E-1],"categories":[],"categories_nodes":[],"categories_segments":[],"categories_sizes":[],"default_left":[0,0,0,0,0,0,0,0,0,0,0,0,0,0,0],"id":27,"left_children":[1,3,5,7,9,-1,-1,-1,11,13,-1,-1,-1,-1,-1],"loss_changes":[3.0984356E1,3.8628796E1,2.5964544E1,2.0326626E1,3.0974297E1,0E0,0E0,0E0,5.6074486E0,5.3871155E-2,0E0,0E0,0E0,0E0,0E0],"parents":[2147483647,0,0,1,1,2,2,3,3,4,4,8,8,9,9],"right_children":[2,4,6,8,10,-1,-1,-1,12,14,-1,-1,-1,-1,-1],"split_conditions":[1.7207559E2,1.2700467E2,2.1384412E-1,4.9104904E2,2.5550045E1,1.931226E-1,-1.5201494E-1,-1.5795814E-1,8.96247E1,1.022908E2,-1.5363804E-1,-1.3586286E-1,1.8428285E-1,6.693049E-2,1.9195203E-1],"split_indices":[9,8,13,1,14,0,0,0,11,10,0,0,0,0,0],"split_type":[0,0,0,0,0,0,0,0,0,0,0,0,0,0,0],"sum_hessian":[4.517845E2,3.263264E2,1.2545809E2,2.1211758E2,1.1420881E2,1.0201812E2,2.3439972E1,1.849903E2,2.7127281E1,8.216258E1,3.204623E1,5.505382E0,2.1621899E1,1.6833441E0,8.047924E1],"tree_param":{"num_deleted":"0","num_feature":"40","num_nodes":"15","size_leaf_vector":"1"}},{"base_weights":[2.541582E-3,1.8482754E-1,-1.5729849E-1,-1.5706031E-1,3.6947662E-1,5.0666803E-1,-1.5490642E-1,6.389115E-1,-1.5275107E-1,-1.2187415E-2,1.928761E-1],"categories":[],"categories_nodes":[],"categories_segments":[],"categories_sizes":[],"default_left":[0,0,0,0,0,0,0,0,0,0,0],"id":28,"left_children":[1,3,-1,-1,5,7,-1,9,-1,-1,-1],"loss_changes":[4.3766186E1,4.4476017E1,0E0,0E0,3.296962E1,3.170005E1,0E0,5.90271E-1,0E0,0E0,0E0],"parents":[2147483647,0,0,1,1,4,4,5,5,7,7],"right_children":[2,4,-1,-1,6,8,-1,10,-1,-1,-1],"split_conditions":[5.468636E-1,0E0,-1.5729849E-1,-1.5706031E-1,4.03222E2,4.1460504E2,-1.5490642E-1,-9.321291E2,-1.5275107E-1,-1.2187415E-2,1.928761E-1],"split_indices":[10,10,0,0,4,5,0,5,0,0,0],"split_type":[0,0,0,0,0,0,0,0,0,0,0],"sum_hessian":[4.5369418E2,3.3755606E2,1.1613813E2,6.9417435E1,2.681386E2,2.325508E2,3.5587822E1,2.060924E2,2.6458387E1,1.1551137E0,2.0493729E2],"tree_param":{"num_deleted":"0","num_feature":"40","num_nodes":"11","size_leaf_vector":"1"}},{"base_weights":[-2.8497365E-3,-1.8578675E-1,6.0545737E-1,-4.7525775E-1,5.9822327E-1,-1.0870017E-1,1.8876489E-1,2.5164086E-1,-1.5793459E-1,1.8811543E-1,-1.1249433E-1,-1.3682924E-1,1.8213603E-1],"categories":[],"categories_nodes":[],"categories_segments":[],"categories_sizes":[],"default_left":[0,0,0,0,0,0,0,0,0,0,0,0,0],"id":29,"left_children":[1,3,5,7,9,-1,-1,11,-1,-1,-1,-1,-1],"loss_changes":[4.9860928E1,7.845788E1,2.609974E0,9.514301E0,2.8534927E0,0E0,0E0,4.620345E0,0E0,0E0,0E0,0E0,0E0],"parents":[2147483647,0,0,1,1,2,2,3,3,4,4,7,7],"right_children":[2,4,6,8,10,-1,-1,12,-1,-1,-1,-1,-1],"split_conditions":[4.2478387E2,5.227319E2,-3.498733E2,-9.1560315E2,1.4100414E2,-1.0870017E-1,1.8876489E-1,-6.929448E2,-1.5793459E-1,1.8811543E-1,-1.1249433E-1,-1.3682924E-1,1.8213603E-1],"split_indices":[5,4,8,5,0,0,0,7,0,0,0,0,0],"split_type":[0,0,0,0,0,0,0,0,0,0,0,0,0],"sum_hessian":[4.4604886E2,3.434556E2,1.0259328E2,2.5112822E2,9.232737E1,2.1168141E0,1.0047646E2,1.6264212E1,2.34864E2,9.0016594E1,2.3107786E0,5.343189E0,1.0921023E1],"tree_param":{"num_deleted":"0","num_feature":"40","num_nodes":"13","size_leaf_vector":"1"}},{"base_weights":[-2.5012007E-3,-2.698319E-1,1.7711261E-1,-1.5565667E-1,1.7550257E-1],"categories":[],"categories_nodes":[],"categories_segments":[],"categories_sizes":[],"default_left":[0,0,0,0,0],"id":30,"left_children":[1,3,-1,-1,-1],"loss_changes":[5.5549892E1,5.1725098E1,0E0,0E0,0E0],"parents":[2147483647,0,0,1,1],"right_children":[2,4,-1,-1,-1],"split_conditions":[1.4141537E1,2.5550045E1,1.7711261E-1,-1.5565667E-1,1.7550257E-1],"split_indices":[19,14,0,0,0],"split_type":[0,0,0,0,0],"sum_hessian":[3.4848044E2,2.4055705E2,1.0792338E2,1.8659352E2,5.3963524E1],"tree_param":{"num_deleted":"0","num_feature":"40","num_nodes":"5","size_leaf_vector":"1"}},{"base_weights":[-2.8784885E-3,3.2631707E-1,-2.67644E-1,5.717075E-1,-1.5222858E-1,-4.4174287E-1,3.4182215E-1,-8.9500144E-2,5.8333355E-1,-4.981958E-1,3.0274448E-1,1.7369716E-1,-1.4150251E-1,4.517383E-2,1.769005E-1,-1.5525605E-1,-2.8575382E-1,-1.1265462E-1,1.6166595E-1,-1.4415678E-1,1.9129223E-1],"categories":[],"categories_nodes":[],"categories_segments":[],"categories_sizes":[],"default_left":[0,0,0,0,0,0,0,0,0,0,0,0,0,0,0,0,0,0,0,0,0],"id":31,"left_children":[1,3,5,7,-1,9,11,-1,13,15,17,-1,-1,-1,-1,-1,19,-1,-1,-1,-1],"loss_changes":[3.0790895E1,3.2509132E1,2.0925724E1,1.4094772E0,0E0,6.5695686E0,8.774984E0,0E0,2.4255371E-1,4.3645477E-1,2.0260842E0,0E0,0E0,0E0,0E0,0E0,2.8424091E0,0E0,0E0,0E0,0E0],"parents":[2147483647,0,0,1,1,2,2,3,3,5,5,6,6,8,8,9,9,10,10,16,16],"right_children":[2,4,6,8,-1,10,12,-1,14,16,18,-1,-1,-1,-1,-1,20,-1,-1,-1,-1],"split_conditions":[0E0,1.3859482E2,7.889774E0,-8.165165E2,-1.5222858E-1,1.8685265E2,1.4141537E1,-8.9500144E-2,-5.5818854E2,3.6961774E2,8.966653E1,1.7369716E-1,-1.4150251E-1,4.517383E-2,1.769005E-1,-1.5525605E-1,3.3095212E2,-1.1265462E-1,1.6166595E-1,-1.4415678E-1,1.9129223E-1],"split_indices":[9,8,12,8,0,13,19,0,9,11,1,0,0,0,0,0,3,0,0,0,0],"split_type":[0,0,0,0,0,0,0,0,0,0,0,0,0,0,0,0,0,0,0,0,0],"sum_hessian":[3.5126813E2,1.5647849E2,1.9478963E2,1.2113884E2,3.5339645E1,1.5172372E2,4.3065903E1,1.2722003E0,1.19866646E2,1.4133725E2,1.0386486E1,3.356777E1,9.498134E0,2.0866978E0,1.17779945E2,1.2823643E2,1.3100812E1,2.5298643E0,7.8566217E0,1.1214901E1,1.8859115E0],"tree_param":{"num_deleted":"0","num_feature":"40","num_nodes":"21","size_leaf_vector":"1"}},{"base_weights":[6.3484064E-3,-1.5068282E-1,4.013144E-1,-3.9780632E-1,2.9654902E-1,1.799138E-1,-1.4812626E-1,-5.165775E-1,3.6176363E-1,1.7891824E-1,-1.501905E-1,-1.5558733E-1,-3.5468727E-2,-1.285467E-1,1.7089617E-1],"categories":[],"categories_nodes":[],"categories_segments":[],"categories_sizes":[],"default_left":[0,0,0,0,0,0,0,0,0,0,0,0,0,0,0],"id":32,"left_children":[1,3,5,7,9,-1,-1,11,13,-1,-1,-1,-1,-1,-1],"loss_changes":[2.2177866E1,2.8398888E1,1.8359478E1,1.5094229E1,2.2204323E1,0E0,0E0,5.5538177E-2,4.011585E0,0E0,0E0,0E0,0E0,0E0,0E0],"parents":[2147483647,0,0,1,1,2,2,3,3,4,4,7,7,8,8],"right_children":[2,4,6,8,10,-1,-1,12,14,-1,-1,-1,-1,-1,-1],"split_conditions":[1.7207559E2,1.3859482E2,2.1384412E-1,4.9104904E2,2.5550045E1,1.799138E-1,-1.4812626E-1,1.4378214E2,8.96247E1,1.7891824E-1,-1.501905E-1,-1.5558733E-1,-3.5468727E-2,-1.285467E-1,1.7089617E-1],"split_indices":[9,8,13,1,14,0,0,9,11,0,0,0,0,0,0],"split_type":[0,0,0,0,0,0,0,0,0,0,0,0,0,0,0],"sum_hessian":[3.5560568E2,2.5488612E2,1.0071956E2,1.6424245E2,9.064368E1,8.271514E1,1.8004416E1,1.4230988E2,2.193257E1,6.605155E1,2.4592121E1,1.4128195E2,1.0279219E0,4.3470416E0,1.758553E1],"tree_param":{"num_deleted":"0","num_feature":"40","num_nodes":"15","size_leaf_vector":"1"}},{"base_weights":[1.8822973E-3,1.7506707E-1,-1.5471534E-1,-1.5416546E-1,3.481704E-1,4.749673E-1,-1.513882E-1,5.9561414E-1,-1.4902966E-1,-1.0839008E-2,1.7995417E-1],"categories":[],"categories_nodes":[],"categories_segments":[],"categories_sizes":[],"default_left":[0,0,0,0,0,0,0,0,0,0,0],"id":33,"left_children":[1,3,-1,-1,5,7,-1,9,-1,-1,-1],"loss_changes":[3.2153446E1,3.2231E1,0E0,0E0,2.3529924E1,2.233902E1,0E0,4.7016144E-1,0E0,0E0,0E0],"parents":[2147483647,0,0,1,1,4,4,5,5,7,7],"right_children":[2,4,-1,-1,6,8,-1,10,-1,-1,-1],"split_conditions":[5.468636E-1,0E0,-1.5471534E-1,-1.5416546E-1,4.03222E2,4.1460504E2,-1.513882E-1,-9.321291E2,-1.4902966E-1,-1.0839008E-2,1.7995417E-1],"split_indices":[10,10,0,0,4,5,0,5,0,0,0],"split_type":[0,0,0,0,0,0,0,0,0,0,0],"sum_hessian":[3.5668628E2,2.677583E2,8.892797E1,5.3371372E1,2.1438693E2,1.8702278E2,2.736415E1,1.6671153E2,2.0311245E1,1.0594643E0,1.6565207E2],"tree_param":{"num_deleted":"0","num_feature":"40","num_nodes":"11","size_leaf_vector":"1"}},{"base_weights":[-2.9891583E-3,-1.8021381E-1,5.6603795E-1,-4.6596518E-1,5.591123E-1,-9.930071E-2,1.7659926E-1,2.2770579E-1,-1.5556754E-1,1.7603533E-1,-1.0343833E-1,-1.2989968E-1,1.668812E-1],"categories":[],"categories_nodes":[],"categories_segments":[],"categories_sizes":[],"default_left":[0,0,0,0,0,0,0,0,0,0,0,0,0],"id":34,"left_children":[1,3,5,7,9,-1,-1,11,-1,-1,-1,-1,-1],"loss_changes":[3.549244E1,5.6953594E1,1.891325E0,7.1990166E0,2.0848103E0,0E0,0E0,3.36114E0,0E0,0E0,0E0,0E0,0E0],"parents":[2147483647,0,0,1,1,2,2,3,3,4,4,7,7],"right_children":[2,4,6,8,10,-1,-1,12,-1,-1,-1,-1,-1],"split_conditions":[4.2478387E2,5.227319E2,-3.498733E2,-9.1560315E2,1.4100414E2,-9.930071E-2,1.7659926E-1,-6.929448E2,-1.5556754E-1,1.7603533E-1,-1.0343833E-1,-1.2989968E-1,1.668812E-1],"split_indices":[5,4,8,5,0,0,0,7,0,0,0,0,0],"split_type":[0,0,0,0,0,0,0,0,0,0,0,0,0],"sum_hessian":[3.4993665E2,2.6735245E2,8.2584175E1,1.9309177E2,7.42607E1,1.6964748E0,8.08877E1,1.3373561E1,1.797182E2,7.239524E1,1.8654617E0,4.3361773E0,9.037383E0],"tree_param":{"num_deleted":"0","num_feature":"40","num_nodes":"13","size_leaf_vector":"1"}},{"base_weights":[-1.654843E-3,-2.6386258E-1,1.6875076E-1,-1.5377654E-1,1.668646E-1],"categories":[],"categories_nodes":[],"categories_segments":[],"categories_sizes":[],"default_left":[0,0,0,0,0],"id":35,"left_children":[1,3,-1,-1,-1],"loss_changes":[4.0223343E1,3.8149124E1,0E0,0E0,0E0],"parents":[2147483647,0,0,1,1],"right_children":[2,4,-1,-1,-1],"split_conditions":[1.4141537E1,2.5550045E1,1.6875076E-1,-1.5377654E-1,1.668646E-1],"split_indices":[19,14,0,0,0],"split_type":[0,0,0,0,0],"sum_hessian":[2.6991116E2,1.8463104E2,8.5280106E1,1.4195247E2,4.2678577E1],"tree_param":{"num_deleted":"0","num_feature":"40","num_nodes":"5","size_leaf_vector":"1"}},{"base_weights":[-2.9343364E-3,3.1187674E-1,-2.6042867E-1,5.430516E-1,-1.4936051E-1,-4.3203834E-1,3.2512486E-1,-8.0808945E-2,5.547819E-1,-4.8901916E-1,2.8040993E-1,1.6456592E-1,-1.3617896E-1,3.9020516E-2,1.6857564E-1,-1.5325601E-1,-2.57908E-1,-1.0377044E-1,1.4976785E-1,-1.391598E-1,1.632049E-1],"categories":[],"categories_nodes":[],"categories_segments":[],"categories_sizes":[],"default_left":[0,0,0,0,0,0,0,0,0,0,0,0,0,0,0,0,0,0,0,0,0],"id":36,"left_children":[1,3,5,7,-1,9,11,-1,13,15,17,-1,-1,-1,-1,-1,19,-1,-1,-1,-1],"loss_changes":[2.2259153E1,2.3398182E1,1.5318084E1,1.0699329E0,0E0,4.8964806E0,6.307052E0,0E0,2.1651077E-1,4.1786957E-1,1.4496446E0,0E0,0E0,0E0,0E0,0E0,2.138763E0,0E0,0E0,0E0,0E0],"parents":[2147483647,0,0,1,1,2,2,3,3,5,5,6,6,8,8,9,9,10,10,16,16],"right_children":[2,4,6,8,-1,10,12,-1,14,16,18,-1,-1,-1,-1,-1,20,-1,-1,-1,-1],"split_conditions":[0E0,1.3859482E2,7.889774E0,-8.165165E2,-1.4936051E-1,1.8685265E2,1.4141537E1,-8.0808945E-2,-5.5818854E2,3.6961774E2,8.966653E1,1.6456592E-1,-1.3617896E-1,3.9020516E-2,1.6857564E-1,-1.5325601E-1,3.3095212E2,-1.0377044E-1,1.4976785E-1,-1.391598E-1,1.632049E-1],"split_indices":[9,8,12,8,0,13,19,0,9,11,1,0,0,0,0,0,3,0,0,0,0],"split_type":[0,0,0,0,0,0,0,0,0,0,0,0,0,0,0,0,0,0,0,0,0],"sum_hessian":[2.7259198E2,1.22550835E2,1.5004115E2,9.559009E1,2.6960745E1,1.1623734E2,3.3803806E1,1.0479606E0,9.454213E1,1.07919655E2,8.317687E0,2.6499718E1,7.3040867E0,1.8801413E0,9.266199E1,9.7498116E1,1.0421538E1,2.0031996E0,6.314488E0,8.62734E0,1.7941985E0],"tree_param":{"num_deleted":"0","num_feature":"40","num_nodes":"21","size_leaf_vector":"1"}},{"base_weights":[6.461551E-3,-1.4646314E-1,3.8306794E-1,-3.9001632E-1,2.8406677E-1,1.7061463E-1,-1.4426927E-1,-5.0955623E-1,3.4016493E-1,1.6964175E-1,-1.4688294E-1,-1.5358713E-1,-4.411677E-2,-1.2089957E-1,1.6080862E-1],"categories":[],"categories_nodes":[],"categories_segments":[],"categories_sizes":[],"default_left":[0,0,0,0,0,0,0,0,0,0,0,0,0,0,0],"id":37,"left_children":[1,3,5,7,9,-1,-1,11,13,-1,-1,-1,-1,-1,-1],"loss_changes":[1.6028933E1,2.0869469E1,1.3164449E1,1.1246738E1,1.5975937E1,0E0,0E0,1.9937515E-2,2.901148E0,0E0,0E0,0E0,0E0,0E0,0E0],"parents":[2147483647,0,0,1,1,2,2,3,3,4,4,7,7,8,8],"right_children":[2,4,6,8,10,-1,-1,12,14,-1,-1,-1,-1,-1,-1],"split_conditions":[1.7207559E2,1.3859482E2,2.1384412E-1,4.9104904E2,2.5550045E1,1.7061463E-1,-1.4426927E-1,1.3778285E2,8.96247E1,1.6964175E-1,-1.4688294E-1,-1.5358713E-1,-4.411677E-2,-1.2089957E-1,1.6080862E-1],"split_indices":[9,8,13,1,14,0,0,9,11,0,0,0,0,0,0],"split_type":[0,0,0,0,0,0,0,0,0,0,0,0,0,0,0],"sum_hessian":[2.7634253E2,1.9697145E2,7.937108E1,1.2586374E2,7.110772E1,6.561383E1,1.375725E1,1.084167E2,1.7447037E1,5.2339592E1,1.8768126E1,1.0729379E2,1.1229073E0,3.4185464E0,1.4028491E1],"tree_param":{"num_deleted":"0","num_feature":"40","num_nodes":"15","size_leaf_vector":"1"}},{"base_weights":[1.0398659E-3,1.6754764E-1,-1.5256135E-1,-1.5162346E-1,3.3258468E-1,4.523763E-1,-1.4809796E-1,5.653962E-1,-1.4538963E-1,8.317888E-3,1.7100374E-1],"categories":[],"categories_nodes":[],"categories_segments":[],"categories_sizes":[],"default_left":[0,0,0,0,0,0,0,0,0,0,0],"id":38,"left_children":[1,3,-1,-1,5,7,-1,9,-1,-1,-1],"loss_changes":[2.3650362E1,2.3500633E1,0E0,0E0,1.6981365E1,1.5989115E1,0E0,3.1401825E-1,0E0,0E0,0E0],"parents":[2147483647,0,0,1,1,4,4,5,5,7,7],"right_children":[2,4,-1,-1,6,8,-1,10,-1,-1,-1],"split_conditions":[5.468636E-1,0E0,-1.5256135E-1,-1.5162346E-1,4.03222E2,4.1460504E2,-1.4809796E-1,-9.1560315E2,-1.4538963E-1,8.317888E-3,1.7100374E-1],"split_indices":[10,10,0,0,4,5,0,5,0,0,0],"split_type":[0,0,0,0,0,0,0,0,0,0,0],"sum_hessian":[2.7673163E2,2.0908347E2,6.7648155E1,4.077124E1,1.6831223E2,1.4739493E2,2.0917303E1,1.3188397E2,1.5510958E1,1.1823248E0,1.3070164E2],"tree_param":{"num_deleted":"0","num_feature":"40","num_nodes":"11","size_leaf_vector":"1"}},{"base_weights":[-3.049603E-3,-1.7590444E-1,5.3793776E-1,-4.5826805E-1,5.31048E-1,-9.0007044E-2,1.6805243E-1,2.0789371E-1,-1.5368327E-1,1.6751799E-1,-9.436812E-2,-1.2281273E-1,1.5499488E-1],"categories":[],"categories_nodes":[],"categories_segments":[],"categories_sizes":[],"default_left":[0,0,0,0,0,0,0,0,0,0,0,0,0],"id":39,"left_children":[1,3,5,7,9,-1,-1,11,-1,-1,-1,-1,-1],"loss_changes":[2.5537937E1,4.1555065E1,1.4003353E0,5.4466324E0,1.5522022E0,0E0,0E0,2.4684944E0,0E0,0E0,0E0,0E0,0E0],"parents":[2147483647,0,0,1,1,2,2,3,3,4,4,7,7],"right_children":[2,4,6,8,10,-1,-1,12,-1,-1,-1,-1,-1],"split_conditions":[4.2478387E2,5.227319E2,-3.498733E2,-9.1560315E2,1.4100414E2,-9.0007044E-2,1.6805243E-1,-6.929448E2,-1.5368327E-1,1.6751799E-1,-9.436812E-2,-1.2281273E-1,1.5499488E-1],"split_indices":[5,4,8,5,0,0,0,7,0,0,0,0,0],"split_type":[0,0,0,0,0,0,0,0,0,0,0,0,0],"sum_hessian":[2.7108524E2,2.0595416E2,6.513107E1,1.4742354E2,5.8530617E1,1.3607719E0,6.3770306E1,1.0842401E1,1.3658115E2,5.7026154E1,1.5044608E0,3.506421E0,7.335979E0],"tree_param":{"num_deleted":"0","num_feature":"40","num_nodes":"13","size_leaf_vector":"1"}},{"base_weights":[-5.0765154E-4,-2.588682E-1,1.6267578E-1,-1.5222523E-1,1.6037977E-1],"categories":[],"categories_nodes":[],"categories_segments":[],"categories_sizes":[],"default_left":[0,0,0,0,0],"id":40,"left_children":[1,3,-1,-1,-1],"loss_changes":[2.9348206E1,2.8234978E1,0E0,0E0,0E0],"parents":[2147483647,0,0,1,1],"right_children":[2,4,-1,-1,-1],"split_conditions":[1.4141537E1,2.5550045E1,1.6267578E-1,-1.5222523E-1,1.6037977E-1],"split_indices":[19,14,0,0,0],"split_type":[0,0,0,0,0],"sum_hessian":[2.0728844E2,1.4079253E2,6.649591E1,1.0748421E2,3.330832E1],"tree_param":{"num_deleted":"0","num_feature":"40","num_nodes":"5","size_leaf_vector":"1"}},{"base_weights":[-3.0877802E-3,3.0059806E-1,-2.5432482E-1,5.21505E-1,-1.4652549E-1,-4.233434E-1,3.1134507E-1,5.335349E-1,-3.6643017E-2,-4.8081094E-1,2.6015875E-1,1.5748265E-1,-1.3040122E-1,3.390361E-2,1.6252378E-1,-1.515515E-1,-2.3234856E-1,-9.4756424E-2,1.3951023E-1,-1.3380593E-1,1.4164066E-1],"categories":[],"categories_nodes":[],"categories_segments":[],"categories_sizes":[],"default_left":[0,0,0,0,0,0,0,0,0,0,0,0,0,0,0,0,0,0,0,0,0],"id":41,"left_children":[1,3,5,7,-1,9,11,13,-1,15,17,-1,-1,-1,-1,-1,19,-1,-1,-1,-1],"loss_changes":[1.6157215E1,1.6966616E1,1.1211373E1,6.489239E-1,0E0,3.646408E0,4.5681467E0,1.9496536E-1,0E0,3.852806E-1,1.0439768E0,0E0,0E0,0E0,0E0,0E0,1.6055226E0,0E0,0E0,0E0,0E0],"parents":[2147483647,0,0,1,1,2,2,3,3,5,5,6,6,7,7,9,9,10,10,16,16],"right_children":[2,4,6,8,-1,10,12,14,-1,16,18,-1,-1,-1,-1,-1,20,-1,-1,-1,-1],"split_conditions":[0E0,1.3859482E2,7.889774E0,4.9104904E2,-1.4652549E-1,1.8685265E2,1.4141537E1,-5.5818854E2,-3.6643017E-2,3.6961774E2,8.966653E1,1.5748265E-1,-1.3040122E-1,3.390361E-2,1.6252378E-1,-1.515515E-1,3.3095212E2,-9.4756424E-2,1.3951023E-1,-1.3380593E-1,1.4164066E-1],"split_indices":[9,8,12,1,0,13,19,9,0,11,1,0,0,0,0,0,3,0,0,0,0],"split_type":[0,0,0,0,0,0,0,0,0,0,0,0,0,0,0,0,0,0,0,0,0],"sum_hessian":[2.0976505E2,9.488055E1,1.1488449E2,7.43916E1,2.0488945E1,8.864849E1,2.6236002E1,7.3194664E1,1.19694E0,8.204671E1,6.601781E0,2.0626595E1,5.6094074E0,1.6845548E0,7.151011E1,7.377972E1,8.26699E0,1.5899353E0,5.0118456E0,6.6246176E0,1.6423726E0],"tree_param":{"num_deleted":"0","num_feature":"40","num_nodes":"21","size_leaf_vector":"1"}},{"base_weights":[6.5304395E-3,-1.4310391E-1,3.6920944E-1,-3.8498592E-1,2.7196816E-1,1.6377747E-1,-1.4019348E-1,-1.5185896E-1,3.2197687E-1,1.6091558E-1,-1.4347854E-1,-1.1283675E-1,1.5261683E-1],"categories":[],"categories_nodes":[],"categories_segments":[],"categories_sizes":[],"default_left":[0,0,0,0,0,0,0,0,0,0,0,0,0],"id":42,"left_children":[1,3,5,7,9,-1,-1,-1,11,-1,-1,-1,-1],"loss_changes":[1.16592045E1,1.537751E1,9.530407E0,8.43448E0,1.1483556E1,0E0,0E0,0E0,2.1127913E0,0E0,0E0,0E0,0E0],"parents":[2147483647,0,0,1,1,2,2,3,3,4,4,8,8],"right_children":[2,4,6,8,10,-1,-1,-1,12,-1,-1,-1,-1],"split_conditions":[1.7207559E2,1.2700467E2,2.1384412E-1,4.9104904E2,2.5550045E1,1.6377747E-1,-1.4019348E-1,-1.5185896E-1,8.96247E1,1.6091558E-1,-1.4347854E-1,-1.1283675E-1,1.5261683E-1],"split_indices":[9,8,13,1,14,0,0,0,11,0,0,0,0],"split_type":[0,0,0,0,0,0,0,0,0,0,0,0,0],"sum_hessian":[2.1286647E2,1.5112192E2,6.1744556E1,9.552657E1,5.559534E1,5.1262676E1,1.0481879E1,8.178782E1,1.3738749E1,4.1317947E1,1.4277392E1,2.6855297E0,1.1053219E1],"tree_param":{"num_deleted":"0","num_feature":"40","num_nodes":"13","size_leaf_vector":"1"}},{"base_weights":[-2.6537045E-5,1.6140212E-1,-1.5065712E-1,-1.4924027E-1,3.2058746E-1,4.355175E-1,-1.4479399E-1,5.433777E-1,-1.4158373E-1,6.863478E-3,1.6458243E-1],"categories":[],"categories_nodes":[],"categories_segments":[],"categories_sizes":[],"default_left":[0,0,0,0,0,0,0,0,0,0,0],"id":43,"left_children":[1,3,-1,-1,5,7,-1,9,-1,-1,-1],"loss_changes":[1.740777E1,1.7203186E1,0E0,0E0,1.2348764E1,1.1566996E1,0E0,2.6988983E-1,0E0,0E0,0E0],"parents":[2147483647,0,0,1,1,4,4,5,5,7,7],"right_children":[2,4,-1,-1,6,8,-1,10,-1,-1,-1],"split_conditions":[5.468636E-1,0E0,-1.5065712E-1,-1.4924027E-1,4.03222E2,4.1460504E2,-1.4479399E-1,-9.1560315E2,-1.4158373E-1,6.863478E-3,1.6458243E-1],"split_indices":[10,10,0,0,4,5,0,5,0,0,0],"split_type":[0,0,0,0,0,0,0,0,0,0,0],"sum_hessian":[2.1274217E2,1.6150302E2,5.1239162E1,3.1013355E1,1.3048967E2,1.14556274E2,1.5933387E1,1.02745285E2,1.1810992E1,1.0756643E0,1.0166962E2],"tree_param":{"num_deleted":"0","num_feature":"40","num_nodes":"11","size_leaf_vector":"1"}},{"base_weights":[-3.0328939E-3,-1.724071E-1,5.1685554E-1,-4.5151654E-1,5.0979257E-1,-8.094162E-2,1.6176826E-1,1.905713E-1,-1.5212375E-1,1.6121817E-1,-8.539822E-2,-1.15554266E-1,1.4506565E-1],"categories":[],"categories_nodes":[],"categories_segments":[],"categories_sizes":[],"default_left":[0,0,0,0,0,0,0,0,0,0,0,0,0],"id":44,"left_children":[1,3,5,7,9,-1,-1,11,-1,-1,-1,-1,-1],"loss_changes":[1.8509203E1,3.0416134E1,1.0545559E0,4.1292496E0,1.1725912E0,0E0,0E0,1.827412E0,0E0,0E0,0E0,0E0,0E0],"parents":[2147483647,0,0,1,1,2,2,3,3,4,4,7,7],"right_children":[2,4,6,8,10,-1,-1,12,-1,-1,-1,-1,-1],"split_conditions":[4.2478387E2,5.227319E2,-3.498733E2,-9.1560315E2,1.4100414E2,-8.094162E-2,1.6176826E-1,-6.929448E2,-1.5212375E-1,1.6121817E-1,-8.539822E-2,-1.15554266E-1,1.4506565E-1],"split_indices":[5,4,8,5,0,0,0,7,0,0,0,0,0],"split_type":[0,0,0,0,0,0,0,0,0,0,0,0,0],"sum_hessian":[2.0818684E2,1.575327E2,5.0654133E1,1.1203415E2,4.5498558E1,1.0948863E0,4.9559246E1,8.729157E0,1.0330499E2,4.4283604E1,1.2149546E0,2.8377833E0,5.891374E0],"tree_param":{"num_deleted":"0","num_feature":"40","num_nodes":"13","size_leaf_vector":"1"}},{"base_weights":[7.3866814E-4,-2.5444177E-1,1.5804332E-1,-1.5087345E-1,1.552084E-1],"categories":[],"categories_nodes":[],"categories_segments":[],"categories_sizes":[],"default_left":[0,0,0,0,0],"id":45,"left_children":[1,3,-1,-1,-1],"loss_changes":[2.1516045E1,2.0957376E1,0E0,0E0,0E0],"parents":[2147483647,0,0,1,1],"right_children":[2,4,-1,-1,-1],"split_conditions":[1.4141537E1,2.5550045E1,1.5804332E-1,-1.5087345E-1,1.552084E-1],"split_indices":[19,14,0,0,0],"split_type":[0,0,0,0,0],"sum_hessian":[1.5827791E2,1.0692732E2,5.1350594E1,8.115057E1,2.5776745E1],"tree_param":{"num_deleted":"0","num_feature":"40","num_nodes":"5","size_leaf_vector":"1"}},{"base_weights":[-3.0705095E-3,2.912755E-1,-2.4886699E-1,5.0418496E-1,-1.4353685E-1,-4.1515046E-1,2.990582E-1,5.171624E-1,-3.1956878E-2,-4.7311425E-1,2.4086133E-1,1.5156849E-1,-1.2401404E-1,2.9622242E-2,1.5799332E-1,-1.4999895E-1,-2.088328E-1,-8.576183E-2,1.3004346E-1,-1.2791757E-1,1.2427683E-1],"categories":[],"categories_nodes":[],"categories_segments":[],"categories_sizes":[],"default_left":[0,0,0,0,0,0,0,0,0,0,0,0,0,0,0,0,0,0,0,0,0],"id":46,"left_children":[1,3,5,7,-1,9,11,13,-1,15,17,-1,-1,-1,-1,-1,19,-1,-1,-1,-1],"loss_changes":[1.1769197E1,1.2373522E1,8.200226E0,5.1854324E-1,0E0,2.7156744E0,3.3255153E0,1.7585278E-1,0E0,3.4461498E-1,7.5472486E-1,0E0,0E0,0E0,0E0,0E0,1.2004634E0,0E0,0E0,0E0,0E0],"parents":[2147483647,0,0,1,1,2,2,3,3,5,5,6,6,7,7,9,9,10,10,16,16],"right_children":[2,4,6,8,-1,10,12,14,-1,16,18,-1,-1,-1,-1,-1,20,-1,-1,-1,-1],"split_conditions":[0E0,1.3859482E2,7.889774E0,4.9104904E2,-1.4353685E-1,1.8685265E2,1.4141537E1,-5.5818854E2,-3.1956878E-2,3.6961774E2,8.966653E1,1.5156849E-1,-1.2401404E-1,2.9622242E-2,1.5799332E-1,-1.4999895E-1,3.3095212E2,-8.576183E-2,1.3004346E-1,-1.2791757E-1,1.2427683E-1],"split_indices":[9,8,12,1,0,13,19,9,0,11,1,0,0,0,0,0,3,0,0,0,0],"split_type":[0,0,0,0,0,0,0,0,0,0,0,0,0,0,0,0,0,0,0,0,0],"sum_hessian":[1.6067015E2,7.3030136E1,8.7640015E1,5.7476887E1,1.55532465E1,6.74214E1,2.0218616E1,5.6430916E1,1.0459718E0,6.220399E1,5.217411E0,1.5906373E1,4.3122444E0,1.5033696E0,5.4927547E1,5.5651333E1,6.5526576E0,1.2674E0,3.9500108E0,5.0908175E0,1.4618403E0],"tree_param":{"num_deleted":"0","num_feature":"40","num_nodes":"21","size_leaf_vector":"1"}},{"base_weights":[6.6651367E-3,-1.4010532E-1,3.5808966E-1,-3.7718904E-1,2.6667997E-1,1.5850896E-1,-1.3568333E-1,-1.4956664E-1,3.050457E-1,1.5738687E-1,-1.3976678E-1,-1.046306E-1,1.4551733E-1],"categories":[],"categories_nodes":[],"categories_segments":[],"categories_sizes":[],"default_left":[0,0,0,0,0,0,0,0,0,0,0,0,0],"id":47,"left_children":[1,3,5,7,9,-1,-1,-1,11,-1,-1,-1,-1],"loss_changes":[8.512609E0,1.1331459E1,6.9472704E0,6.278186E0,8.4576845E0,0E0,0E0,0E0,1.5573136E0,0E0,0E0,0E0,0E0],"parents":[2147483647,0,0,1,1,2,2,3,3,4,4,8,8],"right_children":[2,4,6,8,10,-1,-1,-1,12,-1,-1,-1,-1],"split_conditions":[1.7207559E2,1.3859482E2,2.1384412E-1,4.9104904E2,2.5550045E1,1.5850896E-1,-1.3568333E-1,-1.4956664E-1,8.96247E1,1.5738687E-1,-1.3976678E-1,-1.046306E-1,1.4551733E-1],"split_indices":[9,8,13,1,14,0,0,0,11,0,0,0,0],"split_type":[0,0,0,0,0,0,0,0,0,0,0,0,0],"sum_hessian":[1.6306836E2,1.1545186E2,4.7616493E1,7.298645E1,4.246541E1,3.9636177E1,7.9803147E0,6.2192013E1,1.0794438E1,3.1616774E1,1.0848636E1,2.1279883E0,8.6664505E0],"tree_param":{"num_deleted":"0","num_feature":"40","num_nodes":"13","size_leaf_vector":"1"}},{"base_weights":[-1.4603573E-3,1.5593037E-1,-1.4884613E-1,-1.4684637E-1,3.1079707E-1,4.223188E-1,-1.4126201E-1,5.266847E-1,-1.3739659E-1,3.0351399E-2,1.5980586E-1],"categories":[],"categories_nodes":[],"categories_segments":[],"categories_sizes":[],"default_left":[0,0,0,0,0,0,0,0,0,0,0],"id":48,"left_children":[1,3,-1,-1,5,7,-1,9,-1,-1,-1],"loss_changes":[1.2811916E1,1.2630423E1,0E0,0E0,9.028967E0,8.433963E0,0E0,1.5088081E-1,0E0,0E0,0E0],"parents":[2147483647,0,0,1,1,4,4,5,5,7,7],"right_children":[2,4,-1,-1,6,8,-1,10,-1,-1,-1],"split_conditions":[5.468636E-1,0E0,-1.4884613E-1,-1.4684637E-1,4.03222E2,4.1460504E2,-1.4126201E-1,-9.063297E2,-1.3739659E-1,3.0351399E-2,1.5980586E-1],"split_indices":[10,10,0,0,4,5,0,5,0,0,0],"split_type":[0,0,0,0,0,0,0,0,0,0,0],"sum_hessian":[1.625567E2,1.2384061E2,3.87161E1,2.354682E1,1.0029379E2,8.817368E1,1.2120108E1,7.918725E1,8.986435E0,1.3496933E0,7.7837555E1],"tree_param":{"num_deleted":"0","num_feature":"40","num_nodes":"11","size_leaf_vector":"1"}},{"base_weights":[-2.97476E-3,-1.6944642E-1,5.001045E-1,-4.452694E-1,4.9268714E-1,1.5645242E-1,-1.150502E-2,1.7462468E-1,-1.5075785E-1,-4.9881686E-2,1.5626222E-1,-1.0812412E-1,1.3614061E-1],"categories":[],"categories_nodes":[],"categories_segments":[],"categories_sizes":[],"default_left":[0,0,0,0,0,0,0,0,0,0,0,0,0],"id":49,"left_children":[1,3,5,7,9,-1,-1,11,-1,-1,-1,-1,-1],"loss_changes":[1.3483793E1,2.2310429E1,4.8136425E-1,3.137125E0,7.5610924E-1,0E0,0E0,1.359515E0,0E0,0E0,0E0,0E0,0E0],"parents":[2147483647,0,0,1,1,2,2,3,3,4,4,7,7],"right_children":[2,4,6,8,10,-1,-1,12,-1,-1,-1,-1,-1],"split_conditions":[4.2478387E2,5.227319E2,1.1850381E2,-9.1560315E2,1.3488995E2,1.5645242E-1,-1.150502E-2,-6.929448E2,-1.5075785E-1,-4.9881686E-2,1.5626222E-1,-1.0812412E-1,1.3614061E-1],"split_indices":[5,4,1,5,2,0,0,7,0,0,0,0,0],"split_type":[0,0,0,0,0,0,0,0,0,0,0,0,0],"sum_hessian":[1.5899168E2,1.1995959E2,3.90321E1,8.491452E1,3.5045067E1,3.757016E1,1.4619384E0,7.0066514E0,7.7907875E1,1.2366008E0,3.3808464E1,2.3026597E0,4.7039914E0],"tree_param":{"num_deleted":"0","num_feature":"40","num_nodes":"13","size_leaf_vector":"1"}},{"base_weights":[2.203944E-3,-2.5032145E-1,1.5433203E-1,-1.4961223E-1,1.507843E-1],"categories":[],"categories_nodes":[],"categories_segments":[],"categories_sizes":[],"default_left":[0,0,0,0,0],"id":50,"left_children":[1,3,-1,-1,-1],"loss_changes":[1.5846997E1,1.5597961E1,0E0,0E0,0E0],"parents":[2147483647,0,0,1,1],"right_children":[2,4,-1,-1,-1],"split_conditions":[1.4141537E1,2.5550045E1,1.5433203E-1,-1.4961223E-1,1.507843E-1],"split_indices":[19,14,0,0,0],"split_type":[0,0,0,0,0],"sum_hessian":[1.2051453E2,8.106293E1,3.9451595E1,6.12085E1,1.9854425E1],"tree_param":{"num_deleted":"0","num_feature":"40","num_nodes":"5","size_leaf_vector":"1"}},{"base_weights":[-3.407057E-3,2.8294528E-1,-2.4389303E-1,4.8928288E-1,-1.401979E-1,-4.0713692E-1,2.8728294E-1,-5.993622E-4,5.0331223E-1,-4.6558487E-1,2.2195049E-1,1.4622252E-1,-1.16950944E-1,2.6035536E-2,1.5431075E-1,-1.4848007E-1,-1.870527E-1,-7.697384E-2,1.2087258E-1,-1.2138287E-1,1.0975155E-1],"categories":[],"categories_nodes":[],"categories_segments":[],"categories_sizes":[],"default_left":[0,0,0,0,0,0,0,0,0,0,0,0,0,0,0,0,0,0,0,0,0],"id":51,"left_children":[1,3,5,7,-1,9,11,-1,13,15,17,-1,-1,-1,-1,-1,19,-1,-1,-1,-1],"loss_changes":[8.59109E0,9.045415E0,5.996022E0,3.1223965E-1,0E0,2.0254526E0,2.429264E0,0E0,1.575718E-1,3.0106163E-1,5.4684055E-1,0E0,0E0,0E0,0E0,0E0,8.935334E-1,0E0,0E0,0E0,0E0],"parents":[2147483647,0,0,1,1,2,2,3,3,5,5,6,6,8,8,9,9,10,10,16,16],"right_children":[2,4,6,8,-1,10,12,-1,14,16,18,-1,-1,-1,-1,-1,20,-1,-1,-1,-1],"split_conditions":[0E0,1.3859482E2,7.889774E0,-6.2341095E2,-1.401979E-1,1.8685265E2,1.4141537E1,-5.993622E-4,-5.5818854E2,3.6961774E2,8.966653E1,1.4622252E-1,-1.16950944E-1,2.6035536E-2,1.5431075E-1,-1.4848007E-1,3.3095212E2,-7.697384E-2,1.2087258E-1,-1.2138287E-1,1.0975155E-1],"split_indices":[9,8,12,8,0,13,19,0,9,11,1,0,0,0,0,0,3,0,0,0,0],"split_type":[0,0,0,0,0,0,0,0,0,0,0,0,0,0,0,0,0,0,0,0,0],"sum_hessian":[1.22752846E2,5.5952415E1,6.680042E1,4.4156483E1,1.1795933E1,5.1275635E1,1.552479E1,1.2497634E0,4.290672E1,4.715446E1,4.1211753E0,1.2199386E1,3.3254044E0,1.3383529E0,4.1568367E1,4.1956596E1,5.197863E0,1.0161501E0,3.1050253E0,3.9225674E0,1.2752957E0],"tree_param":{"num_deleted":"0","num_feature":"40","num_nodes":"21","size_leaf_vector":"1"}},{"base_weights":[6.9064638E-3,-1.374699E-1,3.488408E-1,-3.7278304E-1,2.563903E-1,1.5424025E-1,-1.3056579E-1,-1.4892244E-1,2.8881428E-1,1.5114458E-1,-1.3596748E-1,-9.6207544E-2,1.3884409E-1],"categories":[],"categories_nodes":[],"categories_segments":[],"categories_sizes":[],"default_left":[0,0,0,0,0,0,0,0,0,0,0,0,0],"id":52,"left_children":[1,3,5,7,9,-1,-1,-1,11,-1,-1,-1,-1],"loss_changes":[6.2484655E0,8.346815E0,5.092939E0,4.7350016E0,6.178562E0,0E0,0E0,0E0,1.1528258E0,0E0,0E0,0E0,0E0],"parents":[2147483647,0,0,1,1,2,2,3,3,4,4,8,8],"right_children":[2,4,6,8,10,-1,-1,-1,12,-1,-1,-1,-1],"split_conditions":[1.7207559E2,1.2700467E2,2.1384412E-1,4.9104904E2,7.889774E0,1.5424025E-1,-1.3056579E-1,-1.4892244E-1,8.96247E1,1.5114458E-1,-1.3596748E-1,-9.6207544E-2,1.3884409E-1],"split_indices":[9,8,13,1,12,0,0,0,11,0,0,0,0],"split_type":[0,0,0,0,0,0,0,0,0,0,0,0,0],"sum_hessian":[1.245997E2,8.802886E1,3.657083E1,5.5139248E1,3.2889618E1,3.0487755E1,6.0830774E0,4.6668518E1,8.47073E0,2.4601656E1,8.28796E0,1.6939368E0,6.776793E0],"tree_param":{"num_deleted":"0","num_feature":"40","num_nodes":"13","size_leaf_vector":"1"}},{"base_weights":[-3.3231918E-3,1.5054294E-1,-1.4698781E-1,-1.4427806E-1,3.018386E-1,4.1122606E-1,-1.3737057E-1,5.132121E-1,-1.3265723E-1,2.549563E-2,1.5610337E-1],"categories":[],"categories_nodes":[],"categories_segments":[],"categories_sizes":[],"default_left":[0,0,0,0,0,0,0,0,0,0,0],"id":53,"left_children":[1,3,-1,-1,5,7,-1,9,-1,-1,-1],"loss_changes":[9.420931E0,9.279652E0,0E0,0E0,6.6493726E0,6.1878004E0,0E0,1.4404488E-1,0E0,0E0,0E0],"parents":[2147483647,0,0,1,1,4,4,5,5,7,7],"right_children":[2,4,-1,-1,6,8,-1,10,-1,-1,-1],"split_conditions":[5.468636E-1,0E0,-1.4698781E-1,-1.4427806E-1,4.03222E2,4.1460504E2,-1.3737057E-1,-9.063297E2,-1.3265723E-1,2.549563E-2,1.5610337E-1],"split_indices":[10,10,0,0,4,5,0,5,0,0,0],"split_type":[0,0,0,0,0,0,0,0,0,0,0],"sum_hessian":[1.23833984E2,9.461041E1,2.9223568E1,1.7865522E1,7.674489E1,6.748686E1,9.258032E0,6.063895E1,6.847908E0,1.2050352E0,5.9433914E1],"tree_param":{"num_deleted":"0","num_feature":"40","num_nodes":"11","size_leaf_vector":"1"}},{"base_weights":[-2.4438878E-3,-1.6639175E-1,4.844759E-1,-4.3895105E-1,4.7733015E-1,1.5231647E-1,-9.740563E-3,1.6071051E-1,-1.4947292E-1,-4.3519728E-2,1.5214497E-1,-1.0047686E-1,1.2780641E-1],"categories":[],"categories_nodes":[],"categories_segments":[],"categories_sizes":[],"default_left":[0,0,0,0,0,0,0,0,0,0,0,0,0],"id":54,"left_children":[1,3,5,7,9,-1,-1,11,-1,-1,-1,-1,-1],"loss_changes":[9.83992E0,1.6386604E1,3.8960218E-1,2.4016943E0,5.914912E-1,0E0,0E0,1.0146952E0,0E0,0E0,0E0,0E0,0E0],"parents":[2147483647,0,0,1,1,2,2,3,3,4,4,7,7],"right_children":[2,4,6,8,10,-1,-1,12,-1,-1,-1,-1,-1],"split_conditions":[4.2478387E2,5.227319E2,1.1850381E2,-9.1560315E2,1.3488995E2,1.5231647E-1,-9.740563E-3,-6.929448E2,-1.4947292E-1,-4.3519728E-2,1.5214497E-1,-1.0047686E-1,1.2780641E-1],"split_indices":[5,4,1,5,2,0,0,7,0,0,0,0,0],"split_type":[0,0,0,0,0,0,0,0,0,0,0,0,0],"sum_hessian":[1.2125195E2,9.120211E1,3.004984E1,6.429639E1,2.6905727E1,2.87738E1,1.2760417E0,5.6314173E0,5.8664967E1,1.053448E0,2.585228E1,1.871969E0,3.759448E0],"tree_param":{"num_deleted":"0","num_feature":"40","num_nodes":"13","size_leaf_vector":"1"}},{"base_weights":[4.244674E-3,-2.4614458E-1,1.5117049E-1,-1.4833921E-1,1.4670064E-1],"categories":[],"categories_nodes":[],"categories_segments":[],"categories_sizes":[],"default_left":[0,0,0,0,0],"id":55,"left_children":[1,3,-1,-1,-1],"loss_changes":[1.1722067E1,1.1638111E1,0E0,0E0,0E0],"parents":[2147483647,0,0,1,1],"right_children":[2,4,-1,-1,-1],"split_conditions":[1.4141537E1,2.5550045E1,1.5117049E-1,-1.4833921E-1,1.4670064E-1],"split_indices":[19,14,0,0,0],"split_type":[0,0,0,0,0],"sum_hessian":[9.170364E1,6.1428047E1,3.0275595E1,4.616255E1,1.5265494E1],"tree_param":{"num_deleted":"0","num_feature":"40","num_nodes":"5","size_leaf_vector":"1"}},{"base_weights":[-3.8037426E-3,2.7476248E-1,-2.3896943E-1,4.7532886E-1,-1.3636914E-1,-3.988574E-1,2.752164E-1,-1.0764493E-3,4.910826E-1,-4.578196E-1,2.031335E-1,1.4099877E-1,-1.0924444E-1,2.3001194E-2,1.5115811E-1,-1.4687048E-1,-1.6693136E-1,-3.9566137E-2,1.0787297E-1,-1.14189275E-1,9.721703E-2],"categories":[],"categories_nodes":[],"categories_segments":[],"categories_sizes":[],"default_left":[0,0,0,0,0,0,0,0,0,0,0,0,0,0,0,0,0,0,0,0,0],"id":56,"left_children":[1,3,5,7,-1,9,11,-1,13,15,17,-1,-1,-1,-1,-1,19,-1,-1,-1,-1],"loss_changes":[6.273442E0,6.6294003E0,4.378113E0,2.6488972E-1,0E0,1.5132113E0,1.7784759E0,0E0,1.4020061E-1,2.576728E-1,2.7080446E-1,0E0,0E0,0E0,0E0,0E0,6.619962E-1,0E0,0E0,0E0,0E0],"parents":[2147483647,0,0,1,1,2,2,3,3,5,5,6,6,8,8,9,9,10,10,16,16],"right_children":[2,4,6,8,-1,10,12,-1,14,16,18,-1,-1,-1,-1,-1,20,-1,-1,-1,-1],"split_conditions":[0E0,1.3859482E2,7.889774E0,-6.2341095E2,-1.3636914E-1,1.8685265E2,1.4141537E1,-1.0764493E-3,-5.5818854E2,3.6961774E2,1.5098305E2,1.4099877E-1,-1.0924444E-1,2.3001194E-2,1.5115811E-1,-1.4687048E-1,3.3095212E2,-3.9566137E-2,1.0787297E-1,-1.14189275E-1,9.721703E-2],"split_indices":[9,8,12,8,0,13,19,0,9,11,1,0,0,0,0,0,3,0,0,0,0],"split_type":[0,0,0,0,0,0,0,0,0,0,0,0,0,0,0,0,0,0,0,0,0],"sum_hessian":[9.376196E1,4.2843357E1,5.0918606E1,3.387572E1,8.967636E0,3.901198E1,1.1906626E1,1.1034298E0,3.277229E1,3.574993E1,3.262048E0,9.329376E0,2.5772498E0,1.1896447E0,3.1582645E1,3.161621E1,4.133721E0,1.0883423E0,2.1737058E0,3.0367568E0,1.0969642E0],"tree_param":{"num_deleted":"0","num_feature":"40","num_nodes":"21","size_leaf_vector":"1"}},{"base_weights":[7.1237683E-3,-1.3492362E-1,3.4034055E-1,-3.66148E-1,2.4875794E-1,1.505171E-1,-1.2472461E-1,-1.4742188E-1,2.7389795E-1,1.4661913E-1,-1.3107795E-1,-8.7532796E-2,1.3230173E-1],"categories":[],"categories_nodes":[],"categories_segments":[],"categories_sizes":[],"default_left":[0,0,0,0,0,0,0,0,0,0,0,0,0],"id":57,"left_children":[1,3,5,7,9,-1,-1,-1,11,-1,-1,-1,-1],"loss_changes":[4.596253E0,6.1343126E0,3.7492347E0,3.574594E0,4.5263014E0,0E0,0E0,0E0,8.532313E-1,0E0,0E0,0E0,0E0],"parents":[2147483647,0,0,1,1,2,2,3,3,4,4,8,8],"right_children":[2,4,6,8,10,-1,-1,-1,12,-1,-1,-1,-1],"split_conditions":[1.7207559E2,1.2700467E2,2.1384412E-1,4.9104904E2,7.889774E0,1.505171E-1,-1.2472461E-1,-1.4742188E-1,8.96247E1,1.4661913E-1,-1.3107795E-1,-8.7532796E-2,1.3230173E-1],"split_indices":[9,8,13,1,12,0,0,0,11,0,0,0,0],"split_type":[0,0,0,0,0,0,0,0,0,0,0,0,0],"sum_hessian":[9.513533E1,6.711842E1,2.8016909E1,4.1908257E1,2.5210167E1,2.3365988E1,4.6509194E0,3.5243305E1,6.6649504E0,1.8887316E1,6.322852E0,1.349784E0,5.3151665E0],"tree_param":{"num_deleted":"0","num_feature":"40","num_nodes":"13","size_leaf_vector":"1"}},{"base_weights":[-5.778088E-3,1.4486241E-1,-1.4494708E-1,-1.4139292E-1,2.93252E-1,4.012541E-1,-1.3293943E-1,5.017171E-1,-1.2723428E-1,2.1305194E-2,1.5306729E-1],"categories":[],"categories_nodes":[],"categories_segments":[],"categories_sizes":[],"default_left":[0,0,0,0,0,0,0,0,0,0,0],"id":58,"left_children":[1,3,-1,-1,5,7,-1,9,-1,-1,-1],"loss_changes":[6.915714E0,6.8247766E0,0E0,0E0,4.9141407E0,4.562787E0,0E0,1.3680267E-1,0E0,0E0,0E0],"parents":[2147483647,0,0,1,1,4,4,5,5,7,7],"right_children":[2,4,-1,-1,6,8,-1,10,-1,-1,-1],"split_conditions":[5.468636E-1,0E0,-1.4494708E-1,-1.4139292E-1,4.03222E2,4.1460504E2,-1.3293943E-1,-9.063297E2,-1.2723428E-1,2.1305194E-2,1.5306729E-1],"split_indices":[10,10,0,0,4,5,0,5,0,0,0],"split_type":[0,0,0,0,0,0,0,0,0,0,0],"sum_hessian":[9.419506E1,7.213033E1,2.2064726E1,1.3577021E1,5.8553314E1,5.1460876E1,7.0924387E0,4.6226376E1,5.2344975E0,1.0764408E0,4.5149937E1],"tree_param":{"num_deleted":"0","num_feature":"40","num_nodes":"11","size_leaf_vector":"1"}},{"base_weights":[-1.7972604E-3,-1.6337454E-1,4.6999335E-1,-4.3231246E-1,4.630312E-1,1.4859132E-1,-8.218975E-3,1.4716794E-1,-1.4816482E-1,1.4837205E-1,-2.0519825E-2,-9.2867866E-2,1.19659886E-1],"categories":[],"categories_nodes":[],"categories_segments":[],"categories_sizes":[],"default_left":[0,0,0,0,0,0,0,0,0,0,0,0,0],"id":59,"left_children":[1,3,5,7,9,-1,-1,11,-1,-1,-1,-1,-1],"loss_changes":[7.1958947E0,1.204436E1,3.1675243E-1,1.8461199E0,3.959198E-1,0E0,0E0,7.6084936E-1,0E0,0E0,0E0,0E0,0E0],"parents":[2147483647,0,0,1,1,2,2,3,3,4,4,7,7],"right_children":[2,4,6,8,10,-1,-1,12,-1,-1,-1,-1,-1],"split_conditions":[4.2478387E2,5.227319E2,1.1850381E2,-9.1560315E2,3.780514E2,1.4859132E-1,-8.218975E-3,-6.929448E2,-1.4816482E-1,1.4837205E-1,-2.0519825E-2,-9.2867866E-2,1.19659886E-1],"split_indices":[5,4,1,5,6,0,0,7,0,0,0,0,0],"split_type":[0,0,0,0,0,0,0,0,0,0,0,0,0],"sum_hessian":[9.238908E1,6.930682E1,2.3082256E1,4.870564E1,2.0601183E1,2.1968521E1,1.1137346E0,4.5444508E0,4.416119E1,1.9512405E1,1.0887764E0,1.5329332E0,3.0115175E0],"tree_param":{"num_deleted":"0","num_feature":"40","num_nodes":"13","size_leaf_vector":"1"}},{"base_weights":[6.8532233E-3,-2.4167478E-1,1.4831983E-1,1.4257677E-1,-1.4696284E-1],"categories":[],"categories_nodes":[],"categories_segments":[],"categories_sizes":[],"default_left":[0,0,0,0,0],"id":60,"left_children":[1,3,-1,-1,-1],"loss_changes":[8.707592E0,8.706092E0,0E0,0E0,0E0],"parents":[2147483647,0,0,1,1],"right_children":[2,4,-1,-1,-1],"split_conditions":[3.232475E1,-6.62484E1,1.4831983E-1,1.4257677E-1,-1.4696284E-1],"split_indices":[22,18,0,0,0],"split_type":[0,0,0,0,0],"sum_hessian":[6.987718E1,4.661789E1,2.3259293E1,1.1753384E1,3.4864506E1],"tree_param":{"num_deleted":"0","num_feature":"40","num_nodes":"5","size_leaf_vector":"1"}},{"base_weights":[-4.2417315E-3,2.6640576E-1,-2.3330025E-1,4.617325E-1,-1.3191639E-1,-3.8895538E-1,2.6239318E-1,2.158079E-3,4.7943968E-1,-4.495043E-1,1.8456134E-1,1.3557568E-1,-1.01024136E-1,2.0437688E-2,1.482496E-1,-1.4506087E-1,-1.4837053E-1,-2.7512802E-2,9.702599E-2,7.793374E-2,-1.05469234E-1],"categories":[],"categories_nodes":[],"categories_segments":[],"categories_sizes":[],"default_left":[0,0,0,0,0,0,0,0,0,0,0,0,0,0,0,0,0,0,0,0,0],"id":61,"left_children":[1,3,5,7,-1,9,11,-1,13,15,17,-1,-1,-1,-1,-1,19,-1,-1,-1,-1],"loss_changes":[4.5737295E0,4.8684487E0,3.1843858E0,2.137351E-1,0E0,1.1526837E0,1.3040392E0,0E0,1.23553276E-1,2.1678638E-1,1.6970594E-1,0E0,0E0,0E0,0E0,0E0,4.48058E-1,0E0,0E0,0E0,0E0],"parents":[2147483647,0,0,1,1,2,2,3,3,5,5,6,6,8,8,9,9,10,10,16,16],"right_children":[2,4,6,8,-1,10,12,-1,14,16,18,-1,-1,-1,-1,-1,20,-1,-1,-1,-1],"split_conditions":[0E0,1.3859482E2,7.889774E0,-7.626289E2,-1.3191639E-1,1.8685265E2,1.4141537E1,2.158079E-3,-5.5818854E2,3.6961774E2,-1.8889662E2,1.3557568E-1,-1.01024136E-1,2.0437688E-2,1.482496E-1,-1.4506087E-1,1.7527761E1,-2.7512802E-2,9.702599E-2,7.793374E-2,-1.05469234E-1],"split_indices":[9,8,12,0,0,13,19,0,9,11,0,0,0,0,0,0,9,0,0,0,0],"split_type":[0,0,0,0,0,0,0,0,0,0,0,0,0,0,0,0,0,0,0,0,0],"sum_hessian":[7.177427E1,3.2825623E1,3.8948647E1,2.5984089E1,6.841535E0,2.9804821E1,9.143827E0,1.0270183E0,2.4957071E1,2.7154247E1,2.6505723E0,7.1331296E0,2.010698E0,1.0570841E0,2.3899986E1,2.3852858E1,3.3013911E0,1.00018E0,1.6503923E0,1.0047317E0,2.2966592E0],"tree_param":{"num_deleted":"0","num_feature":"40","num_nodes":"21","size_leaf_vector":"1"}},{"base_weights":[7.30543E-3,-1.3240045E-1,3.3203426E-1,-3.5890937E-1,2.4079487E-1,1.4703035E-1,-1.1811744E-1,-1.4576073E-1,2.5878915E-1,1.427026E-1,-1.2545832E-1,-7.898748E-2,1.25599E-1],"categories":[],"categories_nodes":[],"categories_segments":[],"categories_sizes":[],"default_left":[0,0,0,0,0,0,0,0,0,0,0,0,0],"id":62,"left_children":[1,3,5,7,9,-1,-1,-1,11,-1,-1,-1,-1],"loss_changes":[3.3893993E0,4.5053377E0,2.7703936E0,2.708374E0,3.3476582E0,0E0,0E0,0E0,6.333375E-1,0E0,0E0,0E0,0E0],"parents":[2147483647,0,0,1,1,2,2,3,3,4,4,8,8],"right_children":[2,4,6,8,10,-1,-1,-1,12,-1,-1,-1,-1],"split_conditions":[1.7207559E2,1.2700467E2,2.1384412E-1,4.9104904E2,2.5550045E1,1.4703035E-1,-1.1811744E-1,-1.4576073E-1,8.96247E1,1.427026E-1,-1.2545832E-1,-7.898748E-2,1.25599E-1],"split_indices":[9,8,13,1,14,0,0,0,11,0,0,0,0],"split_type":[0,0,0,0,0,0,0,0,0,0,0,0,0],"sum_hessian":[7.274243E1,5.1275005E1,2.1467422E1,3.1932205E1,1.9342802E1,1.789474E1,3.5726843E0,2.6664991E1,5.267214E0,1.446521E1,4.877592E0,1.0831712E0,4.1840425E0],"tree_param":{"num_deleted":"0","num_feature":"40","num_nodes":"13","size_leaf_vector":"1"}},{"base_weights":[-8.970964E-3,1.3850181E-1,-1.4260033E-1,-1.3806316E-1,2.8436086E-1,3.916185E-1,-1.2789327E-1,4.9118373E-1,-1.2106822E-1,2.4812547E-2,1.5038912E-1],"categories":[],"categories_nodes":[],"categories_segments":[],"categories_sizes":[],"default_left":[0,0,0,0,0,0,0,0,0,0,0],"id":63,"left_children":[1,3,-1,-1,5,7,-1,9,-1,-1,-1],"loss_changes":[5.065567E0,5.021675E0,0E0,0E0,3.6467843E0,3.3799033E0,0E0,1.0794258E-1,0E0,0E0,0E0],"parents":[2147483647,0,0,1,1,4,4,5,5,7,7],"right_children":[2,4,-1,-1,6,8,-1,10,-1,-1,-1],"split_conditions":[5.468636E-1,0E0,-1.4260033E-1,-1.3806316E-1,4.03222E2,4.1460504E2,-1.2789327E-1,-8.857363E2,-1.2106822E-1,2.4812547E-2,1.5038912E-1],"split_indices":[10,10,0,0,4,5,0,5,0,0,0],"split_type":[0,0,0,0,0,0,0,0,0,0,0],"sum_hessian":[7.1695984E1,5.5005302E1,1.6690681E1,1.0353164E1,4.4652138E1,3.918684E1,5.465301E0,3.516597E1,4.02087E0,1.0713792E0,3.409459E1],"tree_param":{"num_deleted":"0","num_feature":"40","num_nodes":"11","size_leaf_vector":"1"}},{"base_weights":[-8.891384E-4,-1.5997605E-1,4.5572E-1,-4.250148E-1,4.4839552E-1,1.4481896E-1,1.1695995E-2,1.3406213E-1,-1.4673817E-1,1.4455482E-1,1.9420938E-3,-8.5430145E-2,1.1159561E-1],"categories":[],"categories_nodes":[],"categories_segments":[],"categories_sizes":[],"default_left":[0,0,0,0,0,0,0,0,0,0,0,0,0],"id":64,"left_children":[1,3,5,7,9,-1,-1,11,-1,-1,-1,-1,-1],"loss_changes":[5.267402E0,8.861002E0,1.9208002E-1,1.4265132E0,2.4531269E-1,0E0,0E0,5.733849E-1,0E0,0E0,0E0,0E0,0E0],"parents":[2147483647,0,0,1,1,2,2,3,3,4,4,7,7],"right_children":[2,4,6,8,10,-1,-1,12,-1,-1,-1,-1,-1],"split_conditions":[4.2478387E2,5.227319E2,1.16043526E2,-9.1560315E2,3.7624118E2,1.4481896E-1,1.1695995E-2,-6.929448E2,-1.4673817E-1,1.4455482E-1,1.9420938E-3,-8.5430145E-2,1.1159561E-1],"split_indices":[5,4,1,5,6,0,0,7,0,0,0,0,0],"split_type":[0,0,0,0,0,0,0,0,0,0,0,0,0],"sum_hessian":[7.050963E1,5.277275E1,1.7736877E1,3.6968647E1,1.5804104E1,1.650854E1,1.2283385E0,3.6910124E0,3.3277634E1,1.4607921E1,1.1961826E0,1.2658248E0,2.4251876E0],"tree_param":{"num_deleted":"0","num_feature":"40","num_nodes":"13","size_leaf_vector":"1"}},{"base_weights":[9.653639E-3,-2.3776416E-1,1.454363E-1,-1.453937E-1,1.3833708E-1],"categories":[],"categories_nodes":[],"categories_segments":[],"categories_sizes":[],"default_left":[0,0,0,0,0],"id":65,"left_children":[1,3,-1,-1,-1],"loss_changes":[6.5072064E0,6.5084457E0,0E0,0E0,0E0],"parents":[2147483647,0,0,1,1],"right_children":[2,4,-1,-1,-1],"split_conditions":[1.4141537E1,2.5550045E1,1.454363E-1,-1.453937E-1,1.3833708E-1],"split_indices":[19,14,0,0,0],"split_type":[0,0,0,0,0],"sum_hessian":[5.337331E1,3.5425617E1,1.7947693E1,2.640472E1,9.020898E0],"tree_param":{"num_deleted":"0","num_feature":"40","num_nodes":"5","size_leaf_vector":"1"}},{"base_weights":[-4.65923E-3,2.582162E-1,-2.2726387E-1,4.4794977E-1,-1.267046E-1,-3.77863E-1,2.4844934E-1,4.6755493E-1,1.1916274E-2,-4.40182E-1,1.6639008E-1,1.2972283E-1,-9.2514835E-2,3.0405236E-2,1.4522418E-1,-1.429471E-1,-1.3221991E-1,8.199336E-2,-7.73663E-3,5.325943E-2,-9.45353E-2],"categories":[],"categories_nodes":[],"categories_segments":[],"categories_sizes":[],"default_left":[0,0,0,0,0,0,0,0,0,0,0,0,0,0,0,0,0,0,0,0,0],"id":66,"left_children":[1,3,5,7,-1,9,11,13,-1,15,17,-1,-1,-1,-1,-1,19,-1,-1,-1,-1],"loss_changes":[3.3467283E0,3.5764632E0,2.3117003E0,1.494894E-1,0E0,8.842032E-1,9.57645E-1,7.163191E-2,0E0,1.799488E-1,7.243587E-2,0E0,0E0,0E0,0E0,0E0,2.6417434E-1,0E0,0E0,0E0,0E0],"parents":[2147483647,0,0,1,1,2,2,3,3,5,5,6,6,7,7,9,9,10,10,16,16],"right_children":[2,4,6,8,-1,10,12,14,-1,16,18,-1,-1,-1,-1,-1,20,-1,-1,-1,-1],"split_conditions":[0E0,1.3859482E2,7.889774E0,4.671517E2,-1.267046E-1,1.8685265E2,1.4141537E1,-5.472061E2,1.1916274E-2,3.6961774E2,1.9479138E2,1.2972283E-1,-9.2514835E-2,3.0405236E-2,1.4522418E-1,-1.429471E-1,7.145456E1,8.199336E-2,-7.73663E-3,5.325943E-2,-9.45353E-2],"split_indices":[9,8,12,1,0,13,19,9,0,11,7,0,0,0,0,0,9,0,0,0,0],"split_type":[0,0,0,0,0,0,0,0,0,0,0,0,0,0,0,0,0,0,0,0,0],"sum_hessian":[5.518929E1,2.5232304E1,2.9956987E1,1.9998695E1,5.233607E0,2.290995E1,7.0470366E0,1.8943605E1,1.0550902E0,2.0727762E1,2.182188E0,5.465013E0,1.5820236E0,1.1259425E0,1.7817663E1,1.8052198E1,2.6755638E0,1.1308528E0,1.0513351E0,1.0042055E0,1.6713582E0],"tree_param":{"num_deleted":"0","num_feature":"40","num_nodes":"21","size_leaf_vector":"1"}},{"base_weights":[7.6281186E-3,-1.295429E-1,3.2302132E-1,-3.4846884E-1,2.3739241E-1,1.4354132E-1,-1.109091E-1,-1.4278284E-1,2.4473417E-1,1.4101642E-1,-1.1909006E-1,-4.4724688E-2,1.1653158E-1],"categories":[],"categories_nodes":[],"categories_segments":[],"categories_sizes":[],"default_left":[0,0,0,0,0,0,0,0,0,0,0,0,0],"id":67,"left_children":[1,3,5,7,9,-1,-1,-1,11,-1,-1,-1,-1],"loss_changes":[2.4997106E0,3.3206112E0,2.0619795E0,2.0560706E0,2.4973803E0,0E0,0E0,0E0,3.5204569E-1,0E0,0E0,0E0,0E0],"parents":[2147483647,0,0,1,1,2,2,3,3,4,4,8,8],"right_children":[2,4,6,8,10,-1,-1,-1,12,-1,-1,-1,-1],"split_conditions":[1.7207559E2,1.3859482E2,2.1384412E-1,4.9104904E2,2.5550045E1,1.4354132E-1,-1.109091E-1,-1.4278284E-1,2.4306435E2,1.4101642E-1,-1.1909006E-1,-4.4724688E-2,1.1653158E-1],"split_indices":[9,8,13,1,14,0,0,0,11,0,0,0,0],"split_type":[0,0,0,0,0,0,0,0,0,0,0,0,0],"sum_hessian":[5.581244E1,3.9306496E1,1.6505943E1,2.4649878E1,1.4656618E1,1.3733382E1,2.7725604E0,2.0452494E1,4.1973834E0,1.0913068E1,3.7435498E0,1.1121515E0,3.0852318E0],"tree_param":{"num_deleted":"0","num_feature":"40","num_nodes":"13","size_leaf_vector":"1"}},{"base_weights":[-1.3032253E-2,1.309022E-1,-1.3981731E-1,-1.3419998E-1,2.7441278E-1,3.8161057E-1,-1.2227117E-1,4.8071715E-1,-1.1418824E-1,2.5902279E-2,1.4783661E-1],"categories":[],"categories_nodes":[],"categories_segments":[],"categories_sizes":[],"default_left":[0,0,0,0,0,0,0,0,0,0,0],"id":68,"left_children":[1,3,-1,-1,5,7,-1,9,-1,-1,-1],"loss_changes":[3.6942027E0,3.6964116E0,0E0,0E0,2.7231872E0,2.5147934E0,0E0,8.959913E-2,0E0,0E0,0E0],"parents":[2147483647,0,0,1,1,4,4,5,5,7,7],"right_children":[2,4,-1,-1,6,8,-1,10,-1,-1,-1],"split_conditions":[5.468636E-1,0E0,-1.3981731E-1,-1.3419998E-1,4.03222E2,4.1460504E2,-1.2227117E-1,-8.775918E2,-1.1418824E-1,2.5902279E-2,1.4783661E-1],"split_indices":[10,10,0,0,4,5,0,5,0,0,0],"split_type":[0,0,0,0,0,0,0,0,0,0,0],"sum_hessian":[5.4718746E1,4.2064983E1,1.2653765E1,7.943165E0,3.412182E1,2.9867521E1,4.2542963E0,2.6757793E1,3.1097271E0,1.0368366E0,2.5720957E1],"tree_param":{"num_deleted":"0","num_feature":"40","num_nodes":"11","size_leaf_vector":"1"}},{"base_weights":[5.385881E-4,1.5168557E-1,-1.3995618E-1,-1.3397525E-1,3.0057415E-1,3.6850724E-1,-1.1002218E-1,4.248515E-1,-9.93802E-2,4.5999762E-1,-7.864812E-2,1.4329273E-1,7.6567945E-3],"categories":[],"categories_nodes":[],"categories_segments":[],"categories_sizes":[],"default_left":[0,0,0,0,0,0,0,0,0,0,0,0,0],"id":69,"left_children":[1,3,-1,-1,5,7,-1,9,-1,11,-1,-1,-1],"loss_changes":[3.9557369E0,3.904962E0,0E0,0E0,1.6988521E0,1.3947825E0,0E0,8.4191847E-1,0E0,2.0846462E-1,0E0,0E0,0E0],"parents":[2147483647,0,0,1,1,4,4,5,5,7,7,9,9],"right_children":[2,4,-1,-1,6,8,-1,10,-1,12,-1,-1,-1],"split_conditions":[5.1768503E0,0E0,-1.3995618E-1,-1.3397525E-1,1.4100414E2,1.2119297E2,-1.1002218E-1,4.4378638E2,-9.93802E-2,3.710954E2,-7.864812E-2,1.4329273E-1,7.6567945E-3],"split_indices":[8,8,0,0,0,1,0,2,0,3,0,0,0],"split_type":[0,0,0,0,0,0,0,0,0,0,0,0,0],"sum_hessian":[5.403217E1,4.1331833E1,1.27003355E1,7.837888E0,3.3493946E1,3.0805681E1,2.6882625E0,2.8873709E1,1.9319726E0,2.7782833E1,1.0908759E0,2.660308E1,1.1797526E0],"tree_param":{"num_deleted":"0","num_feature":"40","num_nodes":"13","size_leaf_vector":"1"}},{"base_weights":[1.3824713E-2,-2.315242E-1,1.4246987E-1,-1.4353344E-1,1.3379206E-1],"categories":[],"categories_nodes":[],"categories_segments":[],"categories_sizes":[],"default_left":[0,0,0,0,0],"id":70,"left_children":[1,3,-1,-1,-1],"loss_changes":[4.8572683E0,4.9079285E0,0E0,0E0,0E0],"parents":[2147483647,0,0,1,1],"right_children":[2,4,-1,-1,-1],"split_conditions":[1.4141537E1,2.5550045E1,1.4246987E-1,-1.4353344E-1,1.3379206E-1],"split_indices":[19,14,0,0,0],"split_type":[0,0,0,0,0],"sum_hessian":[4.0965534E1,2.7062689E1,1.3902843E1,2.0049326E1,7.0133643E0],"tree_param":{"num_deleted":"0","num_feature":"40","num_nodes":"5","size_leaf_vector":"1"}},{"base_weights":[-5.1348065E-3,2.4771415E-1,-2.1933083E-1,4.3144518E-1,-1.2077742E-1,-4.4454724E-1,8.387055E-2,1.6526464E-2,4.5411417E-1,-1.3913408E-1,-2.953171E-2,-1.185805E-1,3.7424877E-1,3.4480914E-2,1.4183515E-1,4.695566E-3,1.2870458E-1],"categories":[],"categories_nodes":[],"categories_segments":[],"categories_sizes":[],"default_left":[0,0,0,0,0,0,0,0,0,0,0,0,0,0,0,0,0],"id":71,"left_children":[1,3,5,7,-1,9,11,-1,13,-1,-1,-1,15,-1,-1,-1,-1],"loss_changes":[2.4211223E0,2.624445E0,1.6890547E0,1.1554861E-1,0E0,4.7794104E-2,1.6993645E0,0E0,4.318905E-2,0E0,0E0,0E0,1.3972843E-1,0E0,0E0,0E0,0E0],"parents":[2147483647,0,0,1,1,2,2,3,3,5,5,6,6,8,8,12,12],"right_children":[2,4,6,8,-1,10,12,-1,14,-1,-1,-1,16,-1,-1,-1,-1],"split_conditions":[0E0,1.3859482E2,1.354818E2,-5.980238E2,-1.2077742E-1,4.018672E2,1.01772064E2,1.6526464E-2,-5.3558685E2,-1.3913408E-1,-2.953171E-2,-1.185805E-1,4.5965126E1,3.4480914E-2,1.4183515E-1,4.695566E-3,1.2870458E-1],"split_indices":[9,8,1,8,0,6,4,0,9,0,0,0,3,0,0,0,0],"split_type":[0,0,0,0,0,0,0,0,0,0,0,0,0,0,0,0,0],"sum_hessian":[4.2700596E1,1.9511568E1,2.318903E1,1.547575E1,4.0358186E0,1.3038168E1,1.0150861E1,1.074057E0,1.4401693E1,1.2029698E1,1.0084693E0,3.6941333E0,6.456728E0,1.1247275E0,1.3276965E1,1.0258056E0,5.430922E0],"tree_param":{"num_deleted":"0","num_feature":"40","num_nodes":"17","size_leaf_vector":"1"}},{"base_weights":[7.836107E-3,1.978845E-1,-2.0672674E-1,4.2099243E-1,-2.1341446E-1,2.3361632E-1,-1.3975357E-1,-1.3156521E-2,1.381173E-1,1.0364238E-1,-1.2905903E-1,1.2966196E-1,-9.6997075E-2],"categories":[],"categories_nodes":[],"categories_segments":[],"categories_sizes":[],"default_left":[0,0,0,0,0,0,0,0,0,0,0,0,0],"id":72,"left_children":[1,3,5,7,9,11,-1,-1,-1,-1,-1,-1,-1],"loss_changes":[1.8340136E0,2.2765465E0,2.521325E0,3.0929327E-1,1.2443657E0,1.0797236E0,0E0,0E0,0E0,0E0,0E0,0E0,0E0],"parents":[2147483647,0,0,1,1,2,2,3,3,4,4,5,5],"right_children":[2,4,6,8,10,12,-1,-1,-1,-1,-1,-1,-1],"split_conditions":[7.818733E1,6.1173183E1,8.193599E1,-6.036631E2,-7.015133E0,5.5187267E1,-1.3975357E-1,-1.3156521E-2,1.381173E-1,1.0364238E-1,-1.2905903E-1,1.2966196E-1,-9.6997075E-2],"split_indices":[2,3,4,3,5,5,0,0,0,0,0,0,0],"split_type":[0,0,0,